0.28506994
0.3095462
-0.12250353
0.38442773
0.15153597
0.38268596
0.34395987
-0.17771955
0.064998545
-0.22224303
-0.25912085
0.16670161
-0.23797317
-0.17399362
0.30204517
-0.54902488
-0.13444951
-0.17114748
0.079900444
-0.35339847
0.71076983
0.33228269
0.22729467
0.26062435
0.52393001
0.065178551
0.26707184
0.10900654
-0.43771434
0.16273186
-0.10517526
-0.0066928174
-0.13283658
0.0023147571
-0.48947749
0.32000116
-0.29044127
-0.024395015
-0.26721868
0.060961824
-0.071779259
0.34636861
0.43899184
0.36460513
0.10778207
0.1157495
0.20141032
0.20920101
0.21291529
-0.20962812
0.098355904
-0.078605898
0.14247997
0.15781707
0.42438954
-0.10327397
0.12113458
-0.088758565
0.16053349
-0.30375022
0.056397125
0.060490794
0.1809047
0.66343486
0.29219642
0.27137703
-0.024634996
0.53971201
0.073158279
0.11337088
-0.25414982
0.35384816
0.19867876
0.28562281
-0.21730593
0.42747551
-0.016580671
-0.52912468
-0.34954751
-0.071033753
0.011950621
0.22557575
0.60752833
0.16874777
0.67002022
0.1158817
0.18397516
0.0035209248
0.56925064
-0.10040989
0.080100521
-0.31692681
0.013154634
0.095025718
-0.18074451
-0.28179222
0.19996957
-0.18222307
-0.20601667
-0.17229088
-0.053616907
0.1456091
0.046519246
0.20349821
0.21713538
0.11904117
0.35530725
0.10635817
0.080226764
0.63317853
0.12915516
-0.075620823
-0.010914201
0.13703746
-0.10494561
-0.17173193
-0.36709127
0.32489562
-0.087600626
-0.18525897
-0.38236442
-0.11515058
-0.17309856
-0.088692278
-0.18997627
0.26026306
0.22502238
0.2771115
0.4254328
0.34152192
0.26651484
0.08507818
0.1077598
-0.4357301
0.4255462
0.081872314
0.024584696
-0.26857942
0.066753112
0.083372079
0.056306683
-0.41772231
-0.092087373
0.10477837
-0.33782709
-0.022126844
0.22322987
0.14885435
0.2131317
0.12402315
0.071631365
0.24039899
0.11842626
0.11364227
-0.31588605
0.23440532
-0.11184265
0.1770194
-0.24581416
0.15897822
-0.18439531
0.03226975
-0.24816546
-0.49435949
-0.079729334
-0.096552946
0.15522192
0.21404305
0.31781557
-0.03213793
-0.095712237
0.208497
0.25450006
-0.19214675
0.093596287
-0.27155691
-0.06745702
-0.25139061
0.10495738
-0.47320732
0.081627101
-0.38353533
-0.11791702
-0.18574491
-0.65163684
-0.35087731
-0.2537691
-0.080504812
0.24446546
0.042142339
0.24791934
-0.20544909
0.13573463
0.35294065
0.050746489
0.14241886
-0.031710986
0.0069758524
-0.37871015
-0.0092751486
-0.2736094
0.11218338
-0.54326105
-0.095520258
-0.54890037
-0.33487886
-0.28133583
-0.33133993
-0.19162911
0.22231236
-0.21357894
0.13784696
-0.16884135
0.2054899
0.31133947
0.098442003
0.3841939
-0.315485
0.2853182
-0.33464304
-0.2167616
-0.2222036
-0.1156321
-0.70449734
0.053658016
-0.26158985
-0.16879067
-0.40899888
-0.20559169
-0.37019259
0.16488859
0.14031696
0.1093556
0.10604951
0.041577917
0.25238425
0.010038621
-0.125815
-0.32538983
0.54606104
-0.25056109
-0.062083777
-0.37098852
-0.057813939
-0.57042277
0.20004471
0.040631045
-0.2565628
-0.27950633
-0.083463736
-0.42858571
0.0014276392
0.24832994
0.31579354
0.2268516
-0.11144555
0.35608906
0.21997026
-0.33687052
-0.28768477
0.43240067
0.037883624
0.1587068
-0.35526258
0.16769081
-0.45760831
0.090897769
0.16480894
-0.32193097
-0.27593088
-0.038222954
-0.18720621
0.060235754
0.2986035
-0.20752446
-0.079051152
-0.16008864
0.50559676
-0.13414329
-0.29316145
-0.18324073
0.24782534
-0.10461136
0.042403307
-0.58343261
-0.018481422
-0.42164084
-0.15636896
-0.17569475
-0.083540544
-0.48464474
0.068462186
-0.18709472
0.13050096
0.099498242
-0.22597882
0.10059403
0.11315072
0.43602329
-0.14426303
0.26528725
-0.10087676
0.36273295
-0.031803668
-0.085191205
-0.22153951
0.18920588
-0.58862156
-0.38954514
-0.16607219
-0.018488655
-0.43206474
0.066759385
-0.068764642
0.2202227
0.19389474
-0.19698828
-0.044930108
0.016049495
0.31545603
0.11929799
0.17964277
-0.14827096
0.48210159
-0.31010124
-0.43282089
-0.25444198
0.1691097
-0.62747067
0.20595096
-0.35297072
0.44726962
0.094707429
0.0046163984
-0.21266295
0.23906898
-0.19945708
0.12232181
-0.0028992661
0.13846394
0.54823959
-0.042201292
0.25691801
-0.023855818
0.46357259
-0.47865796
-0.53074634
-0.30899853
-0.13777895
-0.49697307
0.069398463
-0.1104592
0.043579716
-0.16929196
-0.22598334
-0.35319406
0.28458694
-0.019995548
0.16970161
0.14815359
0.29142553
0.47113088
-0.16488323
0.045865547
0.21215308
0.26932198
-0.18732087
-0.21925296
-0.31369206
-0.066994585
-0.37103316
-0.086802728
0.24262697
-0.027949998
-0.055398211
-0.0096022179
-0.1519101
0.23462175
0.14474164
0.42938083
0.46530575
0.52459657
0.52431011
-0.35761654
0.080653526
-0.19329874
0.29537815
0.022559302
-0.050982635
-0.052777447
0.14283472
-0.20910217
-0.012460801
0.041957561
-0.21592197
0.26732856
0.15248062
-0.0088670263
0.34788617
-0.029094961
0.15811157
0.16705444
0.18772176
0.33734527
0.11215114
-0.23422182
0.14878313
-0.34462187
-0.17606579
0.3884849
0.020316977
0.047308721
0.24253079
0.057355855
0.043295328
-0.23040657
0.18036582
-0.22931157
-0.21758828
0.97294241
-0.016692251
-0.051957075
0.045516592
0.24047153
0.38458344
-0.18764977
-0.1350909
0.36923727
-0.21011885
0.015377913
0.19756261
0.22796442
-0.13660522
0.099897213
-0.134672
-0.019671157
0.161336
0.27085105
-0.29190171
0.032687627
0.42821199
0.10749085
-0.098291092
-0.13919772
0.075907387
0.033303216
-0.3131282
0.31633347
-0.075045548
-0.0922921
0.14302503
0.085572638
-0.056034245
-0.12933622
0.043855991
-0.41940534
0.095368609
-0.16554712
-0.20460522
-0.34008807
-0.047023702
0.16456406
0.1823383
0.36409295
-0.42999095
0.14158285
-0.35922858
-0.41282922
0.24869241
-0.19886416
-0.062298689
0.13915862
0.13393655
-0.093455896
-0.037440617
0.36924782
0.21908884
0.10809632
0.07932175
-0.46925336
0.15612103
0.072017379
0.18400906
0.21957535
0.32543871
-0.25862697
-0.17126426
-0.37564272
-0.36439008
0.33027098
-0.27493852
-0.18002203
0.18088001
-0.020225331
-0.10051932
-0.28677851
0.39409953
0.08427728
0.031636633
-0.049162284
-0.27341327
0.15582697
-0.11828992
0.35720924
0.074518822
0.080759637
-0.44538978
-0.33517808
-0.14132258
-0.0098342495
-0.092948228
-0.001449728
-0.1262861
0.077832334
-0.37964052
-0.16131264
-0.13006529
0.49396208
0.17662507
-0.048117537
0.016780177
-0.21447827
-0.1816227
-0.20861356
0.32017842
-0.054553043
0.15157799
-0.30538496
0.0050588818
-0.487573
-0.095625386
0.25781104
0.030894712
0.12749755
0.15128632
-0.15921985
-0.018687252
-0.38088202
0.24093284
0.42271599
0.020902865
0.030986587
0.038050722
-0.21992147
-0.31464106
0.24013719
-0.15354168
0.50829816
0.09502238
0.42904982
-0.81903231
-0.094310164
-0.080854572
-0.016729623
0.45120656
-0.08198344
-0.088180065
0.073750295
-0.21341169
0.11879105
1.01677
0.15523393
0.12403178
0.10270584
-0.085552685
0.02987342
0.2532286
-0.40869597
0.67590785
0.46626008
0.39168474
-0.6853258
0.27981892
0.057300765
0.23587663
-0.035716575
-0.023257537
-0.13943225
0.14522046
-0.29603174
0.066696495
0.69507742
-0.086739823
0.21139939
0.26499325
-0.1688711
-0.14094752
0.22263071
-0.82974541
0.94947779
0.23630622
0.12072027
-0.23301512
0.25571012
-0.021032549
0.46640646
-0.13661592
-0.30381235
-0.4156251
0.54422146
-0.29819179
0.026544403
0.42557329
0.050346654
0.06724827
0.19166784
-0.26917833
-0.19097139
0.21293475
-0.73969269
0.18708014
0.30985171
0.11585827
-0.061775044
0.5116303
0.035497215
0.28351405
0.045417476
-0.17141488
-0.24722682
0.40198201
-0.43199441
-0.015448238
0.24631388
0.086634845
0.12517792
0.46419856
0.022946965
-0.12940782
0.15845945
-0.82639372
0.35391474
0.19645113
-0.043651972
-0.095540069
0.2594043
-0.094702668
0.18477011
-0.010558617
-0.17389871
-0.36458665
0.43534574
-0.65400529
0.18115032
0.44706383
-0.27481863
0.17103405
-0.30787706
-0.043176949
-0.047459528
-0.061305646
-0.49890384
0.44252127
0.13757621
0.37466177
-0.14956109
0.080283999
0.36265722
-0.2005783
0.22910196
-0.27497414
-0.47024688
0.28793418
-0.72705638
0.3851395
0.335044
-0.39317915
0.098564178
-0.21909541
-0.10191059
0.1459107
-0.11564255
-0.18962225
-0.04087054
0.13627562
0.46065265
-0.17515719
-0.52441096
0.16194354
-0.14783721
-0.1213825
0.115996
0.13537771
-0.39115202
-0.52648675
0.42338547
0.2319852
0.11037114
0.076271772
0.23159863
0.19763939
-0.17712136
-0.16601664
0.041072574
0.12788177
0.065595768
0.34927386
0.0038870885
-0.12432726
0.29869756
0.13687743
-0.22288242
0.11267484
-0.010195613
-0.21159004
-0.31294331
0.43647176
0.39258799
-0.21665485
0.21756239
0.27823234
0.027708532
0.090597108
-0.11526538
-0.044615354
0.54891407
0.2903139
0.069532938
-0.19948243
-0.42968959
0.1071624
-0.088730127
-0.24051747
-0.096192569
-0.028255366
0.12627578
-0.19331583
0.38458666
-0.063445769
-0.19857986
0.31256503
0.070557408
0.07785891
0.011503945
-0.25216022
-0.063076064
0.12022404
0.024126142
0.064156257
-0.027986111
-0.22653744
-0.048790067
0.32301554
-0.030523477
-0.23801975
0.19610579
-0.10190619
-0.0099739786
0.083872728
-0.040870525
-0.31679848
0.38123614
-0.0024844818
-0.09468013
0.2400171
-0.17451182
0.11175703
-0.043730788
-0.14351095
-0.15908419
0.41534823
0.044754069
0.074777372
-0.096848845
-0.077630579
-0.22033854
0.33124241
0.064477623
0.043821961
0.34551752
-0.050412502
-0.053815242
0.089527912
-0.039420184
-0.03849839
0.11236715
-0.13556585
-0.026496543
-0.13460617
-0.22791159
-0.057041977
0.092326425
0.36716697
0.25114235
0.011431627
-0.1034479
-0.18692763
0.20542948
-0.031485509
-0.14394128
0.085084729
-0.16595657
-0.003010378
-0.0040617841
-0.091794841
-0.087744102
-0.16982795
-0.023700478
-0.075619347
0.20713162
0.13030052
0.26205793
0.38326403
-0.23370092
0.27935508
-0.24303275
0.19448832
0.015473686
-0.43286511
-0.36039144
-0.13118508
-0.60331535
0.20418826
-0.34731349
0.15495646
0.029805182
-0.011487059
0.21635129
0.62171572
-0.12118565
0.094635941
0.18601598
0.086939275
0.086105794
-0.091798477
0.059714656
0.0036654971
0.28623852
-0.0062124585
-0.55307978
-0.40146858
-0.17205116
-0.51283163
-0.21503766
-0.10678571
-0.00049059541
0.068515792
-0.00022806991
0.14768685
0.2108392
-0.22496738
0.12211509
0.088335104
0.054115064
0.1187066
-0.34323663
-0.1598617
-0.0067809727
0.14917558
-0.27107275
-0.6850161
-0.73449832
-0.088084862
-0.48080808
0.10568935
-0.44353601
0.19804172
-0.14856988
0.067631364
0.14398442
0.13424866
-0.33864519
0.13218898
-0.06930007
0.085682355
0.16049826
-0.13516386
0.032768112
0.16186225
0.097328082
-0.44442329
-0.66435713
-0.53316623
0.065741852
-0.61113644
0.22199488
-0.071487024
0.16437581
-0.014580921
0.087516241
-0.063811421
0.24070467
-0.43314359
0.14044976
0.031439058
0.11228601
0.26658994
-0.036917325
0.084474005
-0.0065716226
0.17448869
-0.51597089
-0.66701466
-0.68592793
0.037799854
-0.54982513
0.17836647
0.0202618
0.18521501
0.017547384
0.087591261
-0.18256544
0.33771259
-0.11878913
-0.041653052
0.28244665
0.20460236
0.27255327
-0.21531862
-0.54918993
0.19624396
0.29130372
-0.12994438
-0.40009508
-0.78396279
-0.010553964
-0.56780005
-0.14226435
-0.23126031
0.13579895
0.13149916
0.2163927
-0.077666856
0.34376392
-0.090423778
-0.17937706
0.097602323
-0.064833358
0.49509922
-0.23037584
-0.34998408
0.14153779
0.39879999
-0.48593593
-0.61918241
-0.8739019
0.37374625
-0.80308688
-0.2232503
0.1628308
0.13659167
0.2137073
0.23011917
-0.13630605
0.21614698
-0.060100086
-0.13678755
-0.073612608
0.087263629
0.2968874
-0.11235505
-0.07634335
0.05095841
0.26535231
-0.40182424
-0.35825828
-0.68800664
0.36614233
-0.51223767
-0.11132715
0.21411869
0.28802621
-0.080713689
-0.068056829
-0.47732502
0.27304009
0.14892551
0.18969689
0.28658822
0.12351567
0.38385218
0.019299988
0.10298606
-0.080844514
0.51935393
-0.51702517
-0.10188691
-0.68927747
0.48472846
-0.31748986
-0.041195847
0.035205904
0.50003916
-0.15076248
-0.13113494
-0.32069105
0.24908681
0.4585132
-0.18690313
0.27379417
0.2428475
0.33848721
-0.10988732
-0.056303147
-0.20198606
0.28505996
-0.43747896
-0.17715889
-0.94860452
0.30296698
-0.37708592
-0.077741638
-0.04414523
0.019632818
-0.0034712907
0.067627318
-0.28906378
0.23234643
0.64347935
0.25298172
0.027385574
-0.0037092834
0.26063788
-0.25733143
-0.067572922
-0.067926958
0.42936963
-0.38302398
-0.23636888
-0.77044171
0.43041793
-0.32582447
-0.1651279
-0.36560607
-0.18069042
-0.088475794
-0.051165842
-0.059805427
0.16207804
0.52680528
0.3661927
0.00048526973
-0.005634869
0.47274908
0.098100178
0.27776685
-0.22611026
0.21407907
-0.19084774
-0.011096837
-0.53174174
0.66506529
-0.23740411
-0.18594596
-0.15505107
0.18812624
0.17127879
-0.18719397
0.037740659
0.19559817
0.4234961
0.11871045
0.24814536
0.12979253
0.37105152
0.17824312
0.48376584
0.02235477
0.3445175
-0.25043589
-0.085247494
-0.47462341
0.74419487
-0.52117652
-0.36334628
0.18885054
0.15954532
0.0021848648
0.17287105
-0.24160171
0.14619008
0.57377517
0.25651601
0.0043323329
-0.082247995
0.37667018
0.23356521
0.13616946
0.056515183
0.66972917
-0.41411653
-0.11520724
-0.22609784
0.87663567
-0.4789958
-0.32235417
-0.25626284
0.070433587
0.13610041
0.059728481
-0.032246266
0.17116953
0.37988874
0.5419299
0.069970995
0.04319974
0.29174259
0.21341746
-0.094674774
-0.072842628
0.45010802
-0.26984513
0.11395547
-0.25538725
0.54467875
-0.50366038
0.089313515
-0.18604356
-0.21738721
0.11725526
-0.21437772
0.064618647
0.23613702
0.68104959
0.4792619
-0.09906251
0.22659323
0.93691432
0.41233605
0.185352
-0.12193422
0.70324683
-0.16527851
-0.10852477
-0.223129
0.50795507
-0.65977019
-0.095962338
-0.27298054
-0.40167296
0.25896466
-0.031946115
-0.11740942
0.2404955
0.71713603
0.40800527
-0.13688998
0.24325345
0.41930032
0.19317852
0.16355792
-0.13602965
0.57354665
0.11742035
-0.010070661
-0.26651686
0.48949116
-0.59469694
-0.10107442
-0.19716309
-0.55807334
0.093198828
-0.019955307
0.19225746
0.44108379
0.62005621
0.53301841
-0.048801914
0.25687873
0.33444363
0.024096044
0.23569037
-0.18538259
0.77872086
0.033121176
-0.014150283
-0.071630441
0.21392642
-0.7300303
0.059789341
-0.29412454
-0.4941971
0.42434019
0.090466328
0.14461623
0.56207949
0.4267883
0.61437678
0.07503102
0.36287656
0.51561803
0.099801451
0.37331641
-0.007749313
0.80173248
-0.14390881
0.10883818
-0.00085484574
0.019266229
-0.50535429
0.20839693
-0.31340873
-0.46210277
0.21071637
0.12850882
-0.31307951
0.82160324
-0.18349352
0.43034476
0.57867193
0.044917282
0.089445896
0.28915581
0.3267107
0.13977332
0.29890904
0.35120869
-0.25184572
0.26232594
-0.074492015
-0.19422035
0.02620806
-0.02898401
-0.13694747
-0.13574505
-0.030930849
-0.13670263
0.8668583
0.028196603
0.34575266
0.4988749
0.16815625
0.09332943
0.57597739
0.19741136
-0.080909207
0.26774958
0.033294596
0.086569823
0.3902896
-0.1917365
-0.13341738
0.49791443
-0.06020724
-0.37084076
-0.15671974
0.073582217
-0.038062658
0.45943266
-0.037265379
0.58174509
0.58583379
0.28017631
-0.17356598
0.45020002
0.090124473
-0.10419236
0.23744822
-0.1088919
0.13290016
0.16813229
-0.28463292
0.026710959
0.26598975
-0.26661924
-0.13106778
0.17912123
0.27975488
-0.26500666
0.3297393
0.092578568
0.35034919
0.57385147
0.5000816
-0.22425994
0.30079004
0.24177314
-0.21124689
0.29984778
-0.21511266
0.25380954
-0.036218148
-0.23578727
-0.11427385
0.35129225
-0.25317422
-0.25400588
0.073881656
-0.11997017
-0.37193629
0.28322169
0.027722767
0.044692948
0.63051313
0.45139387
-0.11293274
0.34962472
0.25515068
-0.10178602
0.17720139
-0.43379536
0.39980102
-0.22799988
0.29467636
-0.058254682
0.33431593
0.0067365034
-0.3310445
0.047895752
-0.64302045
-0.34125176
0.37215135
-0.1616701
0.10735695
0.59065247
0.80418843
-0.28058743
0.26434103
0.18886305
0.1565828
0.18168516
-0.49934831
0.24501845
-0.2847693
0.30349392
0.021256458
0.38707557
0.16895354
-0.21874107
0.073336326
-0.077458106
-0.29408044
0.29217598
-0.043254364
0.2879799
0.47361749
0.68759257
-0.68983614
0.39974183
0.55495018
-0.34209728
0.39077064
-0.31865081
0.16937095
-0.26112908
0.25958377
0.0717839
0.40424192
0.061757039
-0.3421165
0.0445625
-0.18003766
-0.46794152
0.27990577
-0.032671474
0.64176118
0.47019976
0.76283586
-0.37378219
0.34544304
0.46758819
-0.40683737
0.41985354
-0.50388694
0.15518093
0.11951541
0.18490645
-0.059260555
0.20015839
-0.27889282
-0.30417922
0.0764779
-0.15758456
-0.50642854
0.25195819
-0.0022194269
0.9244374
0.32046804
0.14337492
-0.32906958
0.27242091
0.19182859
-0.16308731
0.22154629
-0.40250421
0.10073782
0.39204097
0.30775899
-0.19717667
0.14546415
-0.23186509
-0.093255848
0.30596423
-0.34533373
-0.52003944
0.23531862
-0.021584189
0.78197408
0.59203577
0.25528088
0.033617746
0.19432071
0.41827247
0.067970194
0.21422423
-0.44754025
0.053212717
0.31781048
0.2111681
-0.26614031
0.21621892
-0.37578973
0.11465142
0.12566368
0.032023296
-0.27635917
0.20421925
0.25759831
0.018023914
0.51837933
0.24423814
-0.0073221666
0.24773838
0.19636583
0.0025543806
0.061822064
-0.28261945
0.29451004
-0.11367615
0.22784425
-0.084853448
0.32094592
0.21927644
0.12127859
0.084172957
-0.017270511
-0.27386889
0.1053775
0.35146335
-0.2101045
0.063440204
0.13835305
0.25727737
0.047000349
0.22881643
-0.044407684
-0.40814024
-0.2030686
0.056983586
-0.028314125
0.35426322
0.1719553
0.12692878
-0.10871585
-0.13497591
0.15472907
0.076031804
-0.31315327
-0.10886167
0.054710198
-0.0052519226
-0.070088923
-0.067577571
0.50053149
0.1293712
-0.014254409
0.11150125
-0.33649698
-0.069704533
-0.096876226
-0.018952748
0.18016657
-0.055984166
0.29842526
-0.31938237
-0.13883951
0.085297808
0.11439674
-0.33275002
-0.11741989
0.059049372
-0.16901504
0.17902862
0.032403693
0.5529806
-0.0097977268
0.087438576
0.18735158
-0.2391102
-0.090420887
-0.051837124
-0.21703079
0.21020052
0.23337115
0.21417171
-0.27468994
0.3944864
-0.21670151
0.09121535
0.039414063
-0.090429336
0.19518307
-0.12188485
0.32730427
-0.078739308
0.31777021
0.11417467
-0.073294818
-0.0093384506
-0.076760858
0.1219577
-0.0092884405
0.012514059
-0.087296285
0.22355971
0.048446551
-0.16029967
0.29328334
-0.1053652
0.15241809
-0.14455535
0.0043622139
0.071591817
-0.1054888
0.16654378
0.069872797
0.17497081
-0.21028098
-0.0010012132
0.22959042
-0.27528408
0.1551052
0.22657943
0.080012187
-0.05958616
0.090191685
0.012530053
-0.32051271
-0.11009784
-0.56856877
-0.23010647
0.10052908
-0.015893012
-0.14367469
-0.15022452
0.098622978
-0.17036332
0.19258891
-0.47039405
-0.2401799
0.40146482
0.15124997
0.13411359
0.26352769
0.31303579
0.12173599
0.092072204
-0.012422651
-0.071441509
-0.18307328
-0.14095142
-0.11399825
0.1421324
0.050241023
0.34919658
-0.12759323
0.013493747
-0.31282586
-0.055222701
-0.54363978
-0.10328989
0.45832211
-0.0031872103
0.33642355
0.38012868
0.073974282
-0.033149179
-0.0088001369
0.22591622
-0.0066961912
-0.059814982
-0.24314938
-0.35198984
0.21231757
0.3047787
0.34776577
-0.18817966
-0.31690031
-0.24466965
-0.028082389
-0.33249533
0.13777448
0.61733496
-0.011833582
0.50638741
0.16692075
0.0021878602
-0.16875112
-0.081148721
0.10243824
-0.072086662
-0.061483409
0.286015
-0.13553163
0.25710073
0.51430207
0.22673596
0.074610703
0.031828262
-0.077744946
-0.21205689
0.099139616
0.43845245
0.27119488
0.25569025
-0.20376769
-0.26661053
0.090565927
0.22974497
-0.11712733
-0.070360787
-0.20661481
-0.027136449
0.24604808
0.27459353
-0.067145362
0.45707592
-0.010382532
0.24479994
-0.019968322
-0.070486546
-0.29372916
0.051806405
0.21698062
0.11856616
0.11208851
-0.21941692
-0.22506276
0.1594498
0.014617908
-0.055165399
0.10338371
-0.34058926
0.047509104
0.4146347
0.084999867
-0.2540043
0.28097478
-0.038792621
0.33173174
0.19715209
0.23946927
-0.59643352
0.38146052
0.44317755
0.11497851
0.16540278
-0.27138701
-0.24377365
0.21011002
-0.070207521
-0.30454946
0.24541631
-0.26356143
-0.059259228
0.23208454
0.30509219
-0.1565624
0.18815705
-0.032772791
0.24808353
0.36211297
0.12990589
-0.16474283
0.28928241
0.23490892
0.070783615
-0.0017151309
-0.43486786
-0.07128939
0.22723414
0.011561587
-0.20526557
0.092432834
-0.10605066
0.020996569
0.1381259
0.18539815
-0.40618959
0.16103902
0.093361787
0.35086045
0.16428182
0.14370497
0.10332578
0.025543472
0.058242843
0.25780311
-0.064279407
-0.12237343
0.23439771
0.22426869
0.14268035
0.087158747
-0.25862053
-0.42431071
0.031155642
0.26690629
-0.17113501
-0.027226254
0.22003308
0.18406804
0.36666897
0.087472469
0.07908605
0.29138273
-0.14760368
0.28154993
-0.10458562
0.17906493
-0.22304402
-0.097652927
0.2208055
-0.052853569
-0.36866727
0.018110417
-0.014951298
0.0050219204
0.22252119
-0.090254486
-0.060609508
0.15314962
0.074935228
0.057240956
0.23479073
0.14569867
0.24494132
-0.020573243
-0.0007836697
0.22008796
-0.085879773
-0.4135839
-0.049652033
-0.17604852
-0.21288089
-0.088092901
0.093507662
-0.28128439
0.21035224
-0.38290411
-0.23199584
-0.32833543
0.22068471
0.25073946
-0.13132656
0.13759887
0.084292449
0.37268183
-0.044709641
-0.14796735
0.20723857
0.034685556
-0.088516884
-0.18233272
-0.46317267
-0.044987082
0.078567788
0.083530419
-0.23809718
0.2322818
0.0021562239
-0.1314736
-0.014002228
0.17264377
0.42484325
-0.11632798
0.077096187
0.18725787
0.1743407
-0.33136714
-0.25932071
-0.15791485
-0.052110262
-0.14288414
0.10392233
-0.54019612
-0.037884671
0.11235258
-0.046733916
-0.045628782
0.021359522
0.093235768
0.41070756
-0.042782377
0.16782141
0.43203187
-0.1320357
-0.04219868
0.28106883
0.1364917
0.023141446
0.028065601
-0.57534426
0.14830337
-0.17848611
0.077118292
-0.50567758
0.0091391187
-0.01615602
0.036440518
0.04844844
0.0022141247
-0.16770439
0.16191447
-0.025149299
0.12843326
0.449049
-0.03832487
-0.27557114
0.35017514
0.053641923
0.056615066
0.13253938
0.10761762
-0.42754507
-0.37405536
-0.038686689
-0.56839997
-0.14453684
-0.24874078
-0.029594816
-0.003093435
0.20844239
0.015819257
0.14254257
-0.17613038
0.083734758
-0.22415249
0.1304746
0.45643973
0.63031918
-0.17251246
-0.0048663639
0.28448227
0.11555436
0.19300306
-0.56013787
-0.28283542
0.026374735
-0.030766701
-0.63429379
-0.16198771
-0.26132616
0.016241977
0.027060943
-0.056511421
-0.54061264
0.0023348457
0.020740965
0.0067592878
-0.010860777
0.22783273
-0.27738374
0.090887986
-0.14330877
-0.11574718
0.021279249
-0.29374221
-0.0012240276
-0.22954267
0.015900778
-0.29087135
0.29345673
-0.24816401
-0.072745681
0.36378372
0.05668804
-0.29612547
-0.10190701
0.18883149
0.42440718
0.19873907
0.11213378
-0.098711617
0.32249102
-0.23765172
-0.046529546
0.34056056
-0.12506707
0.1733693
-0.016894227
0.11730578
-0.38119635
0.42024791
-0.11713643
-0.11244284
-0.10057765
-0.037223399
-0.19468296
-0.10418705
0.028336177
0.43385401
0.22847699
0.4245609
-0.0566791
0.20121485
0.32494938
-0.1145567
0.15710633
-0.61388576
0.10712332
-0.20840496
-0.02382746
-0.28065199
-0.32919115
0.0013413847
-0.19636722
-0.2179666
-0.040851068
-0.50715733
-0.025317034
-0.17910649
-0.019585969
0.079950519
0.13227136
-0.078836896
0.00084280182
0.067630135
-0.23997393
0.050323799
0.066091157
0.27194175
-0.17316338
0.028305789
0.07468164
-0.42536992
-0.084659293
-0.025558453
-0.18251427
0.1062215
-0.092916004
-0.092978239
0.0094921291
0.44430843
0.21642965
0.20654194
-0.25208765
0.43498006
0.18713841
-0.37267572
0.48355493
-0.38561127
0.06208998
0.28556931
-0.0036055292
0.042385109
0.44932759
-0.048657127
0.046367895
-0.0029415684
0.12297912
-0.46268111
-0.018964056
-0.27020335
0.3389985
0.38261694
0.31504023
-0.004806465
0.56293029
0.3667995
-0.0024982127
0.40961021
-0.51284307
-0.16511196
-0.09047804
-0.082777798
-0.18943095
0.12964129
0.074168876
0.080988787
-0.03530753
-0.044489857
-0.21839756
0.26827759
0.033199675
0.23705724
0.30242258
-0.036167774
-0.085667126
-0.077964298
0.082362652
0.18187588
0.32018498
0.0045495536
0.19667844
-0.25632522
0.015747678
0.077834807
-0.023289273
-0.067189157
0.26982552
0.034322213
0.18956627
-0.044672098
0.50339329
-0.12372559
-0.020457545
0.097360589
0.004348259
-0.27101266
0.070663452
0.27577117
-0.16964698
0.1664637
-0.062720925
-0.2486022
-0.29064375
0.10921385
-0.13435619
0.018457768
-0.037556119
0.046596386
0.080968902
0.45895964
0.073516101
0.61946058
0.0076679462
-0.045318514
-0.1413763
-0.1053003
0.15251425
0.27345583
0.1269789
-0.22638254
0.21812402
-0.25003007
0.059039276
-0.099662229
0.019790864
0.0075751599
-0.047156133
-0.060125697
0.030539455
-0.074764103
0.095142886
-0.28887346
0.30511132
0.066557653
-0.23721327
-0.095710143
-0.29858083
-0.039270062
0.2574771
0.028211055
0.08264675
0.093994834
-0.21082044
0.051817052
-0.15189064
-0.071177185
-0.06757848
0.17167702
-0.095372647
0.044096246
-0.17053039
-0.20860802
-0.19993486
0.23217711
-0.18146537
0.23488384
0.075318158
0.10994267
-0.16065522
0.73794991
0.27278125
-0.033860076
0.17925544
-0.019535037
0.21841314
0.25937334
0.15223542
-0.081879847
-0.1975311
-0.22370008
0.10990463
-0.090940163
-0.131898
-0.26365322
0.16713603
-0.24709041
0.24718876
0.080474079
0.22476402
0.29680154
0.43117136
0.36444685
0.056283269
0.31156677
0.15506308
0.26991796
0.21303195
-0.15653467
0.19757806
0.014192888
-0.2914311
0.06115251
-0.16626741
0.26152885
0.21406803
0.15256292
-0.035727825
0.18817542
0.1702306
0.10454974
0.20311351
0.096316285
0.2121294
-0.10196856
0.065748565
0.069265895
0.44179687
0.1996202
0.0743815
-0.16752008
-0.088212788
-0.530137
0.018314576
0.037575331
-0.25289822
0.19992299
0.16720593
-0.063263983
0.61033183
0.065156721
0.019697323
0.3341243
0.24914685
0.44364646
-0.27321196
0.22418007
-0.12115659
0.27328557
0.47446695
0.26124674
-0.062275406
-0.3760474
-0.65941346
-0.26440313
-0.42837092
-0.33176538
-0.089979142
0.20873187
-0.24373204
0.41542092
0.27504504
0.29093432
0.32761058
0.38344496
0.60579699
-0.10821988
-0.075463019
-0.19131608
0.11693997
0.33362302
0.07521975
-0.10907317
-0.22973062
-0.57566792
-0.26925364
-0.49596548
-0.47881362
-0.16917872
0.16739272
-0.18817459
0.34634748
0.28503489
0.30643317
0.4557656
0.12677681
0.36050504
-0.28476086
-0.070457309
-0.04244994
0.037641246
0.26163727
-0.038856234
-0.023911811
-0.14170483
-0.29068485
-0.14640807
-0.52553195
-0.12329867
-0.27535671
0.20978726
0.21612267
-0.073873542
0.25653586
0.16443817
0.39852133
-0.14978172
-0.11062636
-0.38253111
-0.027059594
0.080867745
0.14585473
-0.18268567
0.057635851
0.020323656
0.21702
-0.077125467
-0.15871535
-0.25068063
0.049466163
0.081415482
0.11486804
0.064005464
-0.10614481
-0.064879045
0.19825017
0.22863576
-0.042030692
0.22528128
-0.31195983
-0.055988576
0.080365859
0.31548837
-0.28644523
0.23116636
0.015313742
0.29776615
-0.26528063
-0.078946754
-0.45801213
-0.062898599
0.22762124
0.090062976
0.21583627
-0.18879177
-0.15983061
0.26764852
0.28532448
0.27438051
0.54843974
-0.20050438
0.10354853
-0.048237961
0.2210498
-0.038254678
-0.012133584
-0.13942876
-0.06031939
-0.06945844
0.29657292
-0.2936632
0.063162021
0.060938943
0.01597427
-0.33075017
-0.14293687
0.21808226
0.25629178
0.010455703
-0.063770249
0.22389637
-0.030865142
0.0063681146
-0.20579742
0.038570445
-0.22154492
-0.16075219
-0.55505806
-0.065541565
-0.23584729
-0.0060702465
-0.13604997
-0.18099153
-0.37300119
-0.0031943414
-0.12520799
0.2429783
-0.03698726
0.2151794
-0.030948889
0.040350191
0.25208917
-0.19532643
0.33870107
-0.09714973
-0.13080773
0.16949132
-0.067391753
-0.22617613
0.25754806
-0.16960354
-0.19131941
-0.26527619
-0.094161145
-0.27313468
0.075206995
-0.18132451
0.20178366
-0.16977645
0.21551429
-0.12566932
-0.018757055
0.11256234
-0.15399832
-0.0046039415
-0.16758741
0.20808296
-0.14675333
-0.14075871
-0.12521197
0.27752811
-0.16275021
-0.30287853
-0.35219488
-0.20979136
-0.27567056
0.027757304
-0.19895747
0.16695869
0.25501129
0.29346725
-0.17296655
0.25745696
0.29170296
0.058016311
0.28929955
-0.30941558
-0.033462796
0.087998122
-0.21813996
-0.17738706
0.067437686
-0.0017218477
-0.32646999
-0.35321316
0.030573167
-0.30293784
-0.0014031692
-0.2892268
-0.21700428
0.0091521796
0.12953791
-0.11978073
-0.10492922
0.19696848
-0.28762907
0.10288323
0.017341619
-0.053843893
-0.013035409
-0.16783066
-0.099527143
0.34759775
-0.047322534
0.020869171
-0.25474212
0.24112238
-0.089425355
0.026464181
-0.59383518
0.074976072
0.39615422
0.13573785
-0.23260146
-0.13990647
0.19961169
0.031684037
0.035528302
-0.3221283
0.10127154
0.11753415
-0.19623752
-0.046892185
0.33329237
0.0091915196
-0.089996614
-0.10076903
0.085601524
-0.25365141
0.25788176
-0.16554162
0.23985441
0.1805477
0.29500544
-0.27487737
0.14671081
0.38421008
0.10591199
0.22042194
-0.44199139
-0.062542491
0.05600315
-0.24639568
-0.22052038
0.41669929
0.071360245
0.26031908
-0.013062431
-0.062788904
-0.35179302
0.45506728
0.18212055
-0.09892831
-0.21804929
-0.10146225
-0.13380323
-0.14029135
-0.12882419
-0.32845739
0.11198746
0.1850909
0.069796093
-0.18820786
0.11965299
-0.1087431
0.19588014
0.015018319
0.46328962
-0.34320396
-0.1629713
0.069334105
0.66238081
0.076597884
0.023886787
-0.28837574
0.050720301
-0.072372384
0.21582782
0.12320005
-0.07638669
0.31474587
0.079585932
0.28236514
0.12714972
0.31267428
-0.057215933
0.45786047
0.14536512
0.37602165
0.16156165
0.17111626
0.055897761
0.34513691
-0.20596482
0.22802129
-0.09447474
0.056264944
0.38438138
-0.0079843868
0.26788226
-0.0033483251
0.33332756
0.10922002
0.3142795
0.15208584
0.051999453
0.0060142055
0.26095846
-0.076966695
0.21380626
0.31591484
0.13919513
0.016975334
0.1921674
-0.23781832
-0.17621109
-0.11457715
-0.061078478
0.27723196
-0.1109309
-0.0040584146
0.1542872
0.099767894
-0.22154246
-0.36272335
-0.28356412
-0.32166967
-0.41768324
0.11721873
-0.14903103
-0.029180022
0.2837249
-0.40649226
-0.096222416
0.24277231
-0.2632862
0.20216356
-0.025107132
0.11410633
-0.050432045
0.29483879
0.25955203
0.20970899
-0.10014683
-0.32418734
-0.41308028
0.030043501
-0.26069441
-0.36697158
0.081992142
-0.032815497
0.12086721
-0.14626096
-0.26735359
-0.36606315
0.31489855
-0.072308816
0.27721047
0.11371723
0.85527903
0.13635792
0.36016846
0.4231987
-0.28600615
0.06284301
-0.01344441
-0.090164185
0.14848788
-0.40370402
0.063285828
0.300859
0.20059446
-0.038968801
-0.37284115
-0.078839347
-0.52140796
0.20657451
0.014129061
0.034559511
0.33538631
0.32677969
0.65289742
-0.097493105
0.021809442
0.054720555
-0.10512605
0.0367493
0.14483309
-0.04295842
-0.35613075
0.010905519
0.18814443
0.29661137
-0.026554558
-0.067129657
0.20744884
0.14257649
0.20109746
0.23031683
0.20467296
0.12015127
0.10825232
0.60918576
-0.048191827
0.063683592
0.29395667
0.16055578
-0.078610078
0.22589543
0.06306193
-0.38426399
-0.15318681
-0.10234258
-0.13132441
-0.15318732
-0.06935823
0.12295951
0.085849829
0.20556825
-0.080560327
0.096826501
-0.19487517
0.23786525
0.29798481
0.12893786
0.12868825
-0.00075749191
0.23273075
-0.25081417
-0.10146321
-0.083736636
-0.43270922
-0.26960191
0.094258048
-0.10207576
-0.20622006
-0.71695834
-0.25394425
0.22677107
0.18873021
-0.271826
0.46442184
0.35066184
0.49921218
-0.10600128
0.39913127
0.50031096
-0.16720337
0.48934749
-0.040314935
-0.093710944
0.3086555
-0.58891898
-0.060136285
0.13903147
-0.14962789
0.023395009
-0.61205423
-0.38177311
-0.11662035
0.1610924
-0.18745849
0.62246406
0.35766256
0.076380812
0.044278618
-0.040742531
-0.12988017
-0.2488469
0.53733754
0.02729018
-0.19762786
0.48125947
-0.2766735
-0.15200578
0.45389372
-0.033693504
0.11821152
-0.38232917
0.060037453
-0.17513131
0.098643459
-0.10341376
0.0077697216
-0.099424407
-0.092657559
0.10105807
-0.52329987
-0.424602
0.17787358
0.31842476
0.035867978
0.19896272
-0.21920928
-0.20132339
0.10953527
0.39503226
0.10387958
0.20295934
0.047366016
-0.031607185
0.033981454
-0.090932548
0.0015729036
0.094834596
-0.2767446
0.22255768
-0.048967708
-0.033665635
-0.24070214
0.27349684
-0.058182742
-0.17264916
0.3273643
-0.18450743
-0.28066924
0.099540181
0.30743134
0.034448989
0.17053802
-0.26252025
-0.040937658
0.1158082
0.007231981
-0.39406416
0.37029892
-0.12846044
0.37160954
-0.3563827
0.17708857
0.63036221
0.25618908
-0.16562028
-0.26772577
-0.25096256
0.31195429
-0.42997259
-0.28104895
0.13016462
-0.25049672
-0.068290561
-0.35683709
-0.10004747
-0.3210102
-0.011467527
0.054054886
0.31827044
0.08060246
0.055605486
0.020955836
-0.012177736
0.11664685
0.2907781
0.22170761
-0.30311126
-0.52016062
0.1084049
0.063732862
-0.22631197
0.26294568
-0.31455824
0.032372352
0.079108775
0.24529806
-0.21232197
0.076287061
-0.17897213
0.17159654
0.21788171
0.16802232
-0.4693124
-0.27954134
-0.26618692
0.14882715
0.31463331
-0.21744701
-0.29910016
-0.11451416
-0.13561624
0.089042626
0.77223438
-0.034255363
0.045076746
-0.03963783
0.0057063913
-0.26907384
-0.029620228
-0.23329586
0.35818627
0.11690322
0.40074998
-0.11416011
-0.075814016
0.093553811
0.14904591
-0.1311055
-0.34689626
0.081688195
0.054358408
-0.1685034
-0.0016307423
0.12258832
0.076988995
0.0022186763
0.18090965
0.22368558
-0.27832526
0.0042035235
-0.13517092
0.25755492
-0.074078478
-0.008966065
-0.12063249
-0.13197747
0.27183259
0.093930177
-0.041766934
0.022810562
-0.013627746
0.039555926
-0.17607544
-0.14686729
0.21146226
-0.26976883
-0.025169725
-0.028178737
0.29343829
0.19109935
0.14351401
-0.40014386
0.029616844
0.14991304
-0.016808707
0.35317597
-0.45329687
0.087617584
-0.27561677
-0.012752387
-0.12084952
-0.11078641
-0.1989872
0.18197788
-0.20232198
0.30162522
-0.50411808
-0.04765217
-0.1593128
0.073211879
0.23244557
0.28806823
-3.7209597
-3.5988882
-4.9792299
-3.2722676
-2.9910834
-3.2054722
-3.3055637
0.3842313
0.020392423
0.014969837
0.86247325
-0.023348693
0.30357695
0.25199902
6.1540442
