-0.26691991
0.28178692
0.06233184
0.32421866
-0.47634107
0.013897734
0.40721801
-0.26027399
0.2279419
-0.5693633
0.026709916
0.31901237
-0.039573245
-0.21114165
0.31392628
0.8693707
-0.066475816
0.14438191
0.44755909
-0.08864563
-1.1307516
-0.40118217
0.094276629
0.27861008
0.16429819
0.068915673
-0.15261629
-0.058312755
0.088286646
-0.26397377
-0.50898963
-0.072623134
-0.19990185
-0.2446219
-0.14034994
0.048502993
0.41528726
-0.030525321
-0.23616104
0.25716263
0.054904718
-0.88321799
-0.52148861
0.72131133
0.4737843
0.058104735
-0.42396566
0.19061071
0.014352771
-0.20631282
0.16867322
-0.69555885
-0.00080939435
0.21787985
-0.50412661
0.0066336696
-0.17868161
0.45777673
-0.2653833
0.2368474
0.69761115
-0.16524993
-0.61035877
-0.25407034
0.26199058
0.15515396
0.2297418
0.27593106
-0.47614351
-0.111229
-0.011718494
-0.072915517
-0.37097135
-0.45186806
0.060738005
-0.32000127
-0.16781017
-0.15670484
-0.024817081
-0.22437131
0.14999647
0.12406348
0.096675314
-0.54332119
-0.67120045
0.41444474
0.38678032
0.32647216
0.058545541
-0.15551747
-0.057481829
0.25236678
-0.29180431
-0.33797085
0.3071515
0.00065731228
-0.17480834
-0.25898713
-0.49567837
0.29745889
-0.35299778
0.17728873
0.23738872
-0.085903883
-0.41241169
-0.55859029
0.54993981
0.3146992
0.31008306
0.40264419
-0.15828043
0.049283631
-0.15467598
-0.02009563
-0.07864283
-0.052685775
0.32035768
-0.044743005
-0.4143486
-0.21002209
0.10344636
-0.13407296
0.015982302
-0.21672145
-0.17419042
-0.37671173
-0.34483859
0.4900907
0.13422874
0.41573817
-0.11281985
-0.22656223
-0.083233066
-0.41832209
-0.33984005
-0.14788024
0.063288227
-0.29060745
-0.051483914
-0.50455815
-0.19356215
0.15328325
-0.13510892
0.21666089
0.14580283
0.19658507
-0.28222412
-0.9201653
0.39796254
0.47079685
0.18114632
-0.19102505
-0.39147499
0.10774293
-0.24630527
-0.25238937
-0.27479002
-0.25722364
-0.14975151
0.049804188
0.041787785
-0.25252143
-0.018237419
0.15402769
0.051207956
0.24348426
-0.0029930079
-0.19221759
-0.40416977
0.3025144
0.43851587
0.12244363
0.09355855
-0.11338955
-0.098258056
0.034647685
-0.33671045
-0.17765851
0.15642108
-0.50010115
-0.029633677
-0.26194948
-0.55978799
0.0090053221
-0.21919146
0.029950567
-0.076577775
-0.066295423
-0.052329361
-0.83335757
0.33252028
0.1814317
0.084568046
0.16223301
-0.091853276
0.29825556
-0.33365661
-0.12887843
-0.20580177
-0.22945218
-0.11068059
-0.26884806
-0.25536832
-0.20964675
-0.0029293706
0.51258183
-0.33791426
0.066261426
0.04138799
0.0054951459
-0.48593396
0.65704793
0.12059957
0.22588407
0.23872036
-0.078188539
0.2348014
-0.036132991
-0.16882443
-0.28878996
0.15778771
-0.047096882
-0.45439082
-0.081940971
-0.41437796
0.0080956686
-0.06851133
-0.19520664
0.045752712
0.057868838
-0.23671129
-0.63106781
0.38626736
-0.010648341
0.46923384
-0.038476747
-0.15754706
0.19265762
-0.29719052
-0.054773599
-0.53885722
-0.17912894
0.033000745
-0.38264984
0.027656561
-0.17820582
-0.11109867
0.19180547
0.00038390412
0.11005172
-0.0013000134
-0.25531995
-0.43180695
0.51532507
0.060946822
0.4334884
0.18661954
-0.13897301
0.07142242
0.098445572
-0.18829238
-0.39631143
0.11910976
-0.28854153
-0.19838957
0.0054498874
-0.51730859
-0.10810546
0.0044077593
0.23337969
0.47999573
0.0495601
-0.31119755
-0.44524282
0.55421472
0.31582025
0.36448294
-0.42313039
-0.047946084
0.26331952
-0.068391748
-0.18740785
-0.14299521
-0.11597305
0.23394388
-0.076437451
-0.4105843
-0.15744297
0.27107099
0.24365196
-0.058838226
0.60270804
0.13099909
-0.35017818
-0.32567587
0.2218764
0.49066758
0.49113029
-0.12701063
-0.29620174
-0.11842293
-0.13865992
-0.23072191
-0.083258368
-0.2809929
-0.41527677
-0.30599189
-0.11340099
-0.52917212
0.061910123
0.70409185
0.28844464
0.46369258
0.31786868
-0.21992154
-0.081854962
0.47260979
0.34755298
0.39131972
-0.69351131
-0.4090862
-0.038440134
-0.18885353
0.22525236
-0.34559682
-0.20602044
0.13148221
-0.58994132
-0.52684206
-0.035305593
0.25757742
0.36657721
-0.037647408
0.64079964
-0.30956763
-0.30148995
-0.043300278
0.043313
-0.14062652
0.43728492
-0.27049208
-0.63006669
-0.30024976
-0.021372311
-0.17008913
-0.49781013
0.0095862485
-0.25067693
-0.32367691
-0.40830871
-0.41888395
0.076933756
-0.050256718
-0.076858915
0.36032161
0.3066757
-0.25724962
-0.43360537
0.46021551
0.53420937
0.61182147
-0.29306555
0.3127349
0.23496592
0.1828292
0.19436038
-0.41110519
-0.2302063
0.37644318
-0.52812356
-0.29086462
-0.091164529
0.58452117
0.071530364
-0.15420039
0.68095273
0.12845536
-0.35630143
-0.13041015
0.11033265
0.086163759
0.62928832
-0.44522691
-0.27423757
0.21300821
0.065807052
-0.23456056
-0.48631334
-0.11207435
-0.090627708
-0.45522261
-0.14420897
-0.44714773
0.30672577
0.096331656
-0.15819168
0.22543523
0.16239491
-0.60515922
0.2190176
0.27555779
-0.021140266
0.06770727
-0.25930116
0.44840541
0.43404031
-0.23552512
0.074400619
-0.082798608
-0.2182402
-0.22224246
0.17499226
-0.055853393
0.10650674
0.1022253
-0.037062366
0.1231861
-0.12913091
-0.28036556
0.38605642
0.10609724
-0.14298742
0.036925603
0.18499981
-0.020333661
0.4674516
0.33377266
0.020552747
-0.025395002
-0.23111287
-0.13280703
-0.20059563
0.087082691
-0.37071347
0.080938943
0.064866081
0.059984982
0.047158431
0.092023283
-0.49910682
0.12471387
0.23643874
-0.055714421
0.079608195
-0.072790764
-0.089772053
0.63936031
0.73439556
0.18239585
0.29896793
-0.080932252
0.022525026
-0.11834996
0.01281819
-0.32484329
-0.3113203
0.024545657
0.1277011
-0.19308633
-0.073616125
-0.15599583
0.040232897
-0.018035859
0.38037696
0.12306132
0.17683837
0.16803329
0.66434807
0.46444902
-0.14780039
0.44621128
0.15445742
0.00142498
0.039187476
-0.19667917
-0.22180074
-0.016082929
0.0018921922
0.14380828
0.0090861721
-0.047609251
-0.32821193
-0.033955876
-0.043362897
0.56771749
0.15898769
0.19692667
0.32230395
0.26733774
0.62640983
-0.26026928
0.17482193
-0.13380384
-0.021099163
-0.026198464
-0.10943615
-0.25018179
0.020246081
-0.27802455
-0.081126101
-0.48386574
-0.030685872
-0.3209441
-0.027192082
-0.27626029
0.17417911
0.32721001
0.14092173
0.63798988
0.10132648
0.23849526
-0.094942473
0.22859667
-0.1963663
-0.21700355
0.061338149
0.034140844
-0.33292478
-0.19867325
-0.23119646
-0.25899476
-0.36078805
0.03066838
-0.38918412
-0.025624471
-0.30874646
0.29974541
0.36085805
0.057037421
0.83181685
-0.075440705
0.48541549
0.017392738
-0.0079121143
-0.33976379
-0.0095017971
0.22636567
0.037066869
-0.22032264
-0.17039989
-0.17132142
-0.16883808
-0.40870139
0.00043894141
-0.7740643
0.047666822
-0.16960239
0.37989962
0.64838159
0.3731319
0.64810228
0.064161062
0.27711192
-0.27326342
-0.11081488
-0.19911949
-0.13557546
0.025659448
0.031094983
-0.18831493
-0.22949137
-0.025282398
-0.33712766
-0.46537003
-0.093570195
-0.44104803
0.013691721
-0.044542197
0.48785934
0.43703732
0.49795085
0.43758956
0.18577383
0.36736992
-0.2281303
0.20023729
-0.33120272
-0.25395435
0.030363595
-0.14857629
-0.11356436
-0.066881336
-0.16548727
-0.34063941
-0.43596143
-0.045372214
-0.43378425
-0.076249443
-0.03681536
0.39700615
0.26993382
0.28413263
0.19167294
-0.11846499
0.20310041
-0.22635269
0.093187585
-0.06704504
0.016735967
0.14297199
-0.13091694
-0.39333203
-0.027672503
-0.10670828
-0.28148216
-0.31778741
-0.27412924
-0.14815786
-0.02905174
0.088848352
0.59885663
-0.044232145
0.38968417
0.33124954
0.10758072
0.40850461
-0.066764362
-0.0055629062
0.0072112097
0.15368631
0.27054715
0.043982308
-0.30503884
-0.1825414
-0.23288475
-0.19076118
-0.3811945
-0.2510145
-0.14918908
0.04360598
-0.25765172
0.26641715
-0.13583072
0.34273973
0.074127525
0.045588288
0.43597731
0.10094646
0.15969935
0.13366953
0.20922558
-0.0079867085
-0.17257276
-0.29589626
-0.080890156
-0.095503822
-0.058295928
-0.093091011
-0.19583976
-0.4059169
0.022974202
-0.26684591
0.57027
-0.14130265
0.51986647
0.0047567943
-0.031249102
0.37994778
-0.10734223
0.28143051
-0.072542436
-0.13346291
0.0078720693
-0.10027301
-0.30095598
0.23210926
-0.19355112
-0.3329075
-0.081997722
-0.41991085
-0.33049798
0.085128948
0.08445508
0.63268465
-0.2112167
0.37419197
-0.19385087
-0.029774608
0.37425941
0.0933645
0.23907708
-0.16698153
-0.23150636
-0.036031216
-0.057441268
-0.15430763
0.1830973
-0.24248593
-0.3475607
0.050019115
-0.23893626
-0.3569451
0.12611438
0.01735232
0.5512253
-0.26937556
0.32262287
-0.13488698
0.13329706
0.40769604
0.060138892
0.31740439
-0.15220651
-0.1378738
-0.0045128269
-0.00081858481
-0.3010729
0.28346416
-0.48506328
-0.30200702
-0.0083916616
-0.34917697
-0.25586629
0.15634845
-0.38869599
0.59479314
-0.036066476
0.45967671
-0.050535146
0.031732231
0.56099826
0.15502509
0.37855178
-0.33607006
-0.10354542
-0.040521953
0.24185081
-0.28870431
0.26185223
-0.32773244
-0.18435098
0.021962853
-0.23120879
0.040386152
0.16086172
-0.19975603
0.56424946
0.1628518
0.49885815
-0.0056634424
0.16190355
0.56771654
-0.16541815
0.27072686
-0.40221024
0.042436004
-0.10231721
0.24619967
-0.43889242
0.5179019
-0.41667724
-0.12798148
-0.014401869
-0.2950305
0.074399322
0.21587937
-0.15048768
0.38258335
-0.10412546
0.2846756
0.068326116
0.021152847
0.23815964
0.25091144
0.45346171
-0.44289407
-0.0094950777
-0.1834162
0.15348008
-0.026254058
0.59629267
-0.30088958
0.075511068
-0.0060675051
-0.27991515
0.13602379
0.28745252
-0.23147108
0.34455878
0.025738386
0.34747803
0.0061328472
-0.15994
0.22205792
0.58652467
0.34871954
-0.24735269
0.042713802
-0.16812333
-0.13346902
-0.12304138
0.57191169
-0.29599011
0.01312
-0.043643367
-0.40963531
0.0090035098
0.32283735
0.60912132
-0.010781134
0.40939608
-0.67263275
0.47701895
0.70620096
-0.18533468
-0.1796532
-0.41646293
-0.34182554
0.17594363
1.0258098
-0.31800002
-0.054931231
-0.062509283
0.053436335
-0.26028705
-0.62092096
-0.26550546
-0.041094169
0.036437172
0.64095414
0.13864742
-0.39337978
-0.59054732
0.86315084
0.41772628
-0.14728464
-0.13662118
-0.78059995
-0.36703023
-0.0035981052
0.4442662
-0.40944958
-0.27689978
-0.20600687
-0.014643462
-0.38895327
-0.48312384
-0.11441771
0.24706149
-0.15386374
0.52142453
0.36356324
0.25185791
-0.4129982
0.57199091
0.56666869
-0.1205748
-0.33064413
-0.65796244
-0.17675552
-0.28361121
0.35258442
-0.12819977
-0.23090722
-0.0083967457
-0.13217725
-0.054951295
-0.21058191
-0.25892901
0.040047653
-0.2472481
0.54834431
0.25888574
-0.089578427
-0.24072897
0.71470851
0.36661506
-0.25607812
-0.3173731
-0.76084149
0.0102449
-0.25144112
0.17563103
-0.2800459
-0.24757637
-0.19082899
-0.15371847
-0.020703048
-0.18469343
-0.26256791
0.16187625
-0.19915684
0.4519926
0.23840506
0.19663602
-0.31631756
0.56865525
0.32581666
-0.13718487
-0.38778552
-0.54705429
-0.36033514
-0.1868692
0.60983175
-0.33106911
0.050739583
0.015636887
-0.28098804
0.041588083
-0.19886279
-0.48125049
-0.1140148
-0.087166838
0.31242496
0.03824009
-0.056353197
-0.5409537
0.85206246
0.57837135
-0.27161124
-0.23652212
-0.43162224
-0.36813471
-0.20017126
0.4201757
-0.05727268
-0.10597156
-0.41282806
0.19085398
0.32090446
0.19766982
-0.63148642
-0.089803658
0.013485778
0.12174262
0.48936751
0.22509021
-0.37063766
0.51441652
0.6121732
0.16688506
0.051840194
-0.48862481
-0.42120469
-0.19574292
0.46726418
-0.040117729
-0.22385825
-0.12085853
-0.44742545
0.19619985
-0.12245918
-0.40135077
0.021717148
0.066326246
0.66341197
0.67336804
0.2398845
0.012032901
0.57751995
0.55732536
0.20250203
-0.1690373
-0.1829001
-0.61776137
0.10064923
0.18297391
0.072678283
-0.015304627
-0.34917608
-0.24658732
0.23011684
0.23848797
-0.4902668
0.17132095
0.097153634
0.52209306
0.2988953
0.43317923
0.070016608
0.42316648
0.7172485
0.63779515
-0.37849668
-0.5235337
-0.31714773
0.21495596
0.97740752
0.087500639
-0.109367
-0.094603516
-0.27090111
0.052438553
0.039469592
-0.12791303
-0.034195211
-0.087201014
0.83586389
0.49067119
0.20060992
0.020099288
0.90785581
0.44316664
0.31482261
-0.1815127
-0.15449744
-0.37865111
0.5893113
0.69794965
0.066439494
-0.0064911367
-0.3738825
-0.36074504
-0.16276981
0.027479842
-0.091317773
0.32844347
-0.0077516055
0.19696645
0.85336643
0.61541218
0.017248837
0.52085406
0.41018391
0.31640106
-0.084877931
-0.42980227
-0.50145632
0.2470665
0.71671748
0.46039486
-0.20883681
-0.4700914
-0.34779313
-0.044713136
0.16132446
-0.10535607
0.040905412
0.060666777
0.23781461
0.541421
0.58276677
0.061965112
0.45861074
0.37324107
-0.12379763
-0.071113795
-0.25757602
-0.42637101
0.37279722
-0.017503118
0.19769052
-0.092917182
-0.37985212
-0.45020351
-0.11054827
-0.054954324
-0.40308017
-0.073945597
0.0020566517
0.18820067
0.49122706
0.51806432
-0.16305889
0.62596083
0.52495742
0.17532091
-0.30802327
-0.36665821
-0.6259324
0.33265403
0.3617135
0.038454581
-0.44157037
-0.27564964
-0.47968918
-0.53669322
-0.23254438
-0.5126912
-0.26753098
-0.080461346
0.29317704
0.80006945
0.31586161
-0.44139576
0.38774627
0.1390302
-0.079201169
-0.035344731
-0.52648145
-0.60462284
0.49756187
0.13370383
0.064063847
0.25780886
-0.027302016
-0.24745359
0.13800117
-0.25073498
-0.80456185
-0.29651082
-0.087320976
0.34202117
1.2581646
0.2562854
-0.62508017
0.35760912
0.39216149
0.3105557
-0.051183913
-0.90326071
-0.57666212
0.60659647
0.27135992
0.33035836
-0.27180353
-0.39492327
-0.24886061
-0.57855475
-0.50185055
-0.86008656
-0.208387
-0.096529268
0.4376384
0.91763341
0.065939799
-0.4451687
0.15776888
0.25608355
-0.51080287
-0.14191251
-0.48746851
-0.5520311
0.9759981
0.12727708
0.34194118
-0.33418947
-0.079469591
-0.036056951
-0.1893805
-0.23946396
-0.70093298
-0.61237824
-0.33527228
0.10045309
0.8802771
0.21916598
-0.34173378
0.17544386
0.49167308
-0.19749901
-0.050957784
-0.34343722
-0.56528658
0.67210066
0.57544047
0.32130003
-0.42534891
-0.082261518
-0.17699568
-0.36619434
-0.32093149
-0.74120826
-0.36342627
-0.32624123
0.195611
0.98402327
-0.075304955
-0.035962433
0.097217344
-0.019750716
-0.24393719
-0.13501222
-0.31917226
-0.3645519
0.50806755
0.23554948
0.22277382
-0.34440097
0.30150542
-0.051663633
-0.029480932
-0.53063917
-0.54259413
-0.34770179
-0.18536291
0.27270928
0.85977566
0.189889
-0.019139191
-0.0081244884
0.43310854
0.16542566
-0.14321472
-0.29276893
-0.50392967
0.73261893
0.66812116
0.33673576
-0.52938318
0.091677889
0.018875416
-0.21999833
-0.091431789
-0.38904053
-0.23805611
-0.1030887
0.0040374128
-0.19695367
0.30872348
-0.027123295
0.42124832
-0.3981185
-0.43863019
0.34156054
-0.26996383
0.10932868
0.10115403
-0.45429766
0.3458623
0.50171542
0.0026312412
0.023511192
0.31547496
-0.58442777
-0.14052169
-0.13656415
1.109452
0.17398763
-0.26771513
0.27231824
-0.19646971
0.41232869
-0.44053552
-0.61771399
0.34704927
-0.23075919
0.25944057
0.066721082
-0.088498913
0.015001696
0.34775904
0.17848693
0.28431726
0.36675444
-0.53439999
0.26733553
-0.054467801
0.51373214
0.23844144
-0.51231074
-0.11998667
-0.28186971
0.2096184
-0.51374966
-0.44909817
0.30780947
-0.054852944
0.19568957
-0.18212694
-0.1799698
0.21149778
0.48374388
0.072326571
0.37549588
-0.074541904
-0.11454823
0.21620981
-0.0061778165
0.24418122
0.19720222
-0.076347873
-0.068491206
-0.094470032
-0.016443402
-0.1259796
-0.43476564
0.33763969
-0.16678092
0.3553957
0.11573705
-0.47195143
-0.093639135
0.25449434
0.22178078
0.20186499
-0.26704049
0.16923802
0.25372803
0.10134608
0.1867799
0.22653355
-0.21753222
-0.27246469
0.2782473
-0.0041840309
-0.13848087
-0.12449075
-0.097474307
-0.034101117
0.50835282
-0.1271982
-0.41497883
-0.28406063
-0.086267568
0.26503834
-0.097299606
-0.34247801
0.22203857
0.21355687
0.29995462
0.15404691
0.52244717
-0.074291706
-0.13921574
0.3759008
-0.11868728
0.14158727
-0.070098847
-0.17362601
0.067329429
0.31579754
0.045062475
-0.32977223
0.0031231546
-0.27431518
0.44523528
0.2094048
-0.00013678109
0.46216875
0.015208689
0.13231958
0.099255472
0.10469437
0.10732705
-0.1912948
0.49287152
-0.091883585
0.072973803
0.25085774
0.084750265
-0.081274144
0.27647743
-0.22400075
-0.40608016
-0.17082009
-0.34532967
0.51107562
0.12800749
0.021257317
0.37695268
-0.063088343
0.38906515
-0.0025229643
0.10223047
0.32083282
-0.18081954
0.54195368
0.015967323
0.11140937
0.11816934
-0.010290187
0.13017206
0.14224878
0.012498069
-0.29293168
-0.22476363
-0.23872371
0.073169306
0.11698218
-0.018999398
0.1258326
0.053528912
0.14581522
-0.075395457
-0.21182767
0.35761955
-0.078463122
0.30965233
-0.42120385
-0.18294415
0.18729214
-0.17409205
0.16723748
0.17621134
-0.11581202
-0.14023349
-0.092307769
-0.22516333
0.31682253
0.34761387
0.013411035
0.33875301
0.40799099
0.027010245
-0.048238814
-0.077409349
0.41369671
0.22018103
0.45257288
-0.24495618
-0.19047166
0.25614274
-0.0020991461
0.43926382
0.18435952
0.20583822
0.39175439
-0.16433305
-0.25951666
0.39573696
0.20953655
0.05714481
0.18675925
0.097685799
0.065402389
-0.026072739
-0.24901335
0.16532147
0.23852675
0.39516276
-0.35323265
-0.07754717
0.36097658
-0.12542224
0.49037391
-0.014718288
0.37614444
0.58818024
-0.17356201
-0.56952661
0.3473317
-0.022716079
0.050162848
0.24532644
0.008930509
-0.14653383
0.00035112651
-0.085647173
0.3521437
0.31940493
0.074986167
-0.61809689
0.015480857
0.10014489
-0.29806828
0.48041564
-0.059454165
0.18420465
0.69545716
-0.15821326
-0.40313241
0.49862185
0.052586611
-0.38754979
0.089288704
0.14762077
-0.18045063
0.069245756
-0.010046911
0.59022206
0.12040582
0.10803742
-0.48382363
-0.19538783
0.18495087
-0.38754821
0.3128961
-0.085145004
0.14481951
0.86405611
-0.018804379
-0.4043915
0.14611679
-0.12043263
-0.43338481
-0.15966547
-0.015309075
-0.27672449
0.2029655
0.23638795
0.77102655
-0.22512081
0.11357717
-0.61027789
-0.15842369
0.2430615
-0.23528306
0.45593226
-0.092211381
0.15054812
1.1768606
-0.058196809
-0.11698062
0.21145758
0.1519056
-0.44868866
-0.13420986
-0.1472678
-0.24772796
0.28084549
0.050367255
0.70246804
0.2484884
0.081051923
-0.52549154
0.29440802
0.41179141
-0.05573108
0.038088486
-0.36461285
0.2877973
1.0171882
0.16276316
-0.1238537
0.28923151
-0.32903743
-0.55882514
-0.0023483508
-0.35350332
0.085457787
0.35444894
0.14330813
0.46711096
0.027375225
-0.14980032
-0.20867957
0.54734737
0.44048765
0.13193348
0.10481125
-0.39305601
0.43442059
0.81523639
0.44189069
-0.056036543
0.39037514
-0.16642897
-0.52345216
0.18149807
-0.46443939
-0.17508551
0.4315002
-0.22043234
0.47944149
-0.20860395
-0.060116213
-0.092254557
0.70401001
0.51480377
0.21660596
0.12419559
-0.49748638
0.15461859
0.68156087
0.39899495
-0.24987292
0.19141236
-0.4606759
-0.38923371
0.1725769
-0.17052442
-0.15157889
0.49403447
-0.25695759
0.38472188
-0.14652658
0.22694369
0.48318127
0.29094085
0.5949136
-0.17475964
-0.093305722
-0.60652345
0.11252393
0.26613277
0.30726472
-0.24838088
-0.076035574
-0.29734421
-0.18691856
-0.065155484
-0.56563818
-0.063699529
0.57931817
-0.089879148
0.3443284
-0.01142871
0.30963358
0.71142238
0.31863582
0.49936882
-0.1523753
0.1202599
-0.55852866
-0.028678413
0.27295431
0.085187435
-0.15268353
-0.005533393
-0.12719961
0.17868058
-0.23459655
-0.43923268
0.017696442
0.67877328
0.48253906
-0.17462482
-0.05802444
1.1247821
-0.0046942588
0.16039076
0.6157797
-0.46787211
0.46442097
0.35507286
0.31861857
-0.15754054
-0.65863568
-0.05964417
0.35586751
-0.15372027
-0.45114508
-0.66358805
-0.42469922
0.051249895
0.089030169
0.2924653
0.0013318228
-0.30180144
1.0242428
0.0018455636
0.096677803
1.0681348
-0.33596179
0.34901172
0.21521717
0.45918247
-0.095920242
-0.54936051
-0.37273052
0.15617916
-0.05532058
-0.49543905
-0.52934217
-0.39928576
0.30851805
-0.10613979
0.040521447
-0.16484609
-0.18236002
1.2332157
-0.059715576
0.11602666
1.0605148
-0.51362473
0.48085362
0.18791279
0.45671737
-0.60248429
-0.73033577
-0.37485453
0.19478926
-0.199422
-0.35467252
-0.25321552
-0.28007123
0.086720124
-0.28359407
-0.11061448
-0.11617557
-0.17497747
1.3072768
0.011904441
0.33573973
1.0529176
-0.36821404
0.33680815
0.18497637
0.2350864
-0.55685687
-0.56275427
-0.48965871
0.19064973
-0.2267119
-0.28965566
-0.42104468
-0.24288276
-0.027391979
-0.2116898
-0.058997016
-0.54264021
-0.25926191
0.95386147
-0.46520579
0.17327458
0.90485924
-0.24159181
0.11070159
-0.2256248
0.44809759
-0.36293498
-0.31268203
-0.12672
0.24488981
-0.15195489
-0.084246106
-0.38081014
-0.47792214
-0.1980857
-0.0364995
0.12871577
-0.037046567
-0.12187519
0.79558152
0.073085949
0.27060342
0.92432022
-0.058769964
0.40646979
-0.3471798
0.29836184
0.13864259
-0.27949923
0.0614319
0.095411211
0.023108147
0.099767491
-0.35494938
-0.28724784
0.10879348
0.045063235
-0.28960687
-0.013882454
0.068703637
0.76930523
0.1980605
0.19494469
0.86601639
0.056587148
0.73986173
-0.31461293
0.33082259
-0.22109495
-0.30826482
0.13884188
0.10850359
-0.16552998
0.15445863
-0.22884995
-0.19896558
-0.18336095
0.062080856
-0.093318634
-6.7978734e-05
-0.1470048
1.2722493
-0.056905292
0.15836215
0.77687132
-0.050935868
0.61993271
-0.61295986
0.14791287
0.20482227
-0.48159698
0.30739191
0.064831316
-0.20178002
-0.25195041
-0.10982081
-0.55751961
0.14594837
0.039911371
-0.00338987
-0.23935638
-0.23085548
0.46428332
0.019032786
0.098595336
0.70701051
0.20188545
0.38543653
-0.32721895
0.44996884
0.024585934
-0.036278732
0.0062658796
0.22904558
0.032092337
0.069994934
-0.045516871
-0.53098249
-0.15666154
0.096203916
-0.043568362
0.19970486
-0.31855613
0.7055921
0.62353569
0.082469143
0.6789059
0.48409623
0.49177289
-0.15547647
0.24200663
0.36519107
-0.15844214
0.39802378
0.26050994
-0.32828629
0.14707224
-0.16744541
-0.40818289
-0.26164213
-0.016629685
-0.11896269
-0.11871167
-0.20438358
0.90916693
0.72460777
-0.13138872
0.61673462
0.50239402
0.18091275
-0.14583455
0.11040962
0.22177565
-0.13892911
0.48938808
-0.045792799
-0.37658036
0.12242735
-0.02375586
-0.41384512
-0.20736924
0.18496326
-0.18533418
0.066808484
0.10589239
0.67293513
0.48568058
-0.025764823
0.53156537
0.34802547
0.35290191
-0.092613153
0.17399251
-0.083719686
-0.021042781
0.52193344
-0.042530198
-0.16529942
0.14458588
-0.17736012
-0.38481125
-0.16473995
0.29647258
-0.087709762
-0.24820931
-0.03361588
0.69099152
0.61239147
-0.16395587
0.21894492
0.18344948
0.4168188
-0.37302279
0.30645868
-0.2764636
0.18557493
0.29497346
0.021663845
-0.27987689
-0.064283878
0.057023276
-0.53094167
-0.10975059
0.41323698
-0.077462144
-0.071453363
0.060423583
0.80034131
0.66721064
-0.0072683282
0.53524667
0.095836736
0.0602213
-0.029965168
0.36952275
-0.44805834
0.16399141
0.35874563
0.093565747
0.0016877728
0.05687907
-0.12321774
-0.64978039
-0.22840573
0.54321367
-0.21118611
-0.16582495
-0.1315272
0.7803545
0.55249453
0.039030064
0.20377861
0.38712162
0.079797067
0.10123634
0.56271696
-0.22912231
0.071266152
0.51303136
-0.25853974
0.34984046
0.0077370163
-0.14685203
-0.46508723
-0.2978833
0.67206025
-0.29395449
-0.22879818
0.018835139
0.5821895
0.23051555
-0.091523476
-0.065969817
0.085203476
0.073747315
0.062762298
0.48699269
-0.27578309
0.21747386
0.15743342
-0.015656393
0.057271194
0.22485368
-0.23401979
-0.4513289
-0.43773997
0.71878713
-0.28388256
-0.14877935
-0.062709749
0.51448452
0.41590032
0.039435089
0.16694814
0.34042561
-0.045172747
0.10816059
0.56155837
-0.41318613
-0.30536574
0.42019212
-0.073088512
0.10399633
0.31591174
-0.12670159
-0.26254591
-0.34371901
0.66121155
-0.12203381
-0.035112657
-0.027550912
0.53021157
0.29944199
0.02808593
0.13811585
0.014965922
-0.024335472
0.37712112
0.34624186
-0.57314795
-0.17405932
0.17641817
0.02385712
0.041269179
0.066913567
-0.43739799
-0.51130974
-0.28809416
0.76127613
-0.36364466
0.052660834
-0.041288294
0.367246
0.019946774
-0.1002389
0.35032129
0.01465977
0.1901533
0.44888529
0.16076311
-0.51671702
-0.15998414
0.22574264
0.011328602
0.039282575
0.2006429
-0.1746038
-0.51750302
-0.38221824
0.9879719
-0.18506204
0.017354427
0.64669681
0.010094961
-0.36899999
0.036402404
-0.15292127
-0.15619186
0.10862986
-0.043451741
-0.043021321
0.41905379
-0.0045447578
-0.064458117
0.16172671
-0.086613774
-0.036954302
0.085205577
-0.072164014
-0.47434315
-0.35145959
0.42954692
-0.65366572
-0.62135184
-0.19583221
0.0097498009
-0.21694186
-0.46672818
0.10521637
-0.2678169
-0.1860934
0.045505136
-0.9913578
-0.45271736
0.21994856
-0.16543609
-0.22222082
-0.21906912
0.35018349
0.085595362
0.043366458
-0.096603692
0.2245809
0.13026381
0.32004118
0.023498679
-0.45214429
0.47447962
-0.08106371
-0.093477271
-0.40102875
-0.27323607
-0.22982326
0.33109587
-0.038220126
-0.007534462
-0.11398596
-0.42239639
-0.023386085
-0.16326445
0.20186286
-0.55675024
-0.038719065
0.3669267
-0.6697008
-0.1345645
-0.1315954
0.3226113
-0.1075039
-0.61799604
-0.15780099
-0.44608164
-0.31760877
0.23482081
-0.5339579
-0.075232364
0.26534471
0.087580018
0.20361882
-0.43155244
0.40859285
0.22169176
-0.22480465
-0.0023692313
0.22691539
0.077260382
0.017540483
0.12790215
-0.25185716
0.38206622
-0.078478985
-0.2397055
-0.12622704
-0.30830851
0.11306471
0.51408625
-0.1727156
0.23380727
0.1768599
-0.20162424
0.10658615
-0.13692847
0.44495237
-0.44878525
0.068882979
0.0020512673
-0.66024172
-0.15763947
-0.2027638
-0.17117901
-0.18778333
-0.59956193
0.4163987
-0.063107766
0.017967457
0.37932196
-0.68782276
-0.22299421
0.44343433
-0.52435213
-0.13185595
-0.15996504
0.28499228
0.16769062
-0.31318083
0.11061238
0.025315851
-0.072042607
-0.01139316
-0.1624821
-0.020533334
0.37140331
0.12132733
0.080285154
-0.46555927
0.010783408
0.17127222
0.56722152
-0.12558825
0.29251412
-0.15179405
-0.4744617
0.059836246
-0.44955787
0.28968886
0.043721475
0.040457834
0.40215319
-0.64322096
-0.3506884
-0.24271794
0.42228034
0.067405991
-0.4763658
0.44947708
0.014669121
0.2214984
0.49897537
-0.33127517
0.26564813
0.55635738
-0.45352209
0.10721023
0.049551595
0.23447657
-0.15630421
-0.12684973
0.11686298
0.24603392
-0.21925786
0.28965151
-0.38360131
-0.071963884
0.34738392
0.039458469
-0.19237442
-0.15890874
-0.075155064
0.028151397
0.6442588
-0.20924017
0.19689219
-0.22256294
-0.24613921
0.096128985
-0.0079160193
0.67060494
0.24396916
0.12958623
0.14994302
-0.61431319
-0.28431019
-0.21771404
-0.04656494
-0.33975056
-0.78051746
0.080691338
-0.066513717
0.31896368
0.20021738
-0.5387547
0.041853655
0.38004732
-0.68737125
-0.12076236
0.021216249
-0.054596242
0.053871028
-0.046829443
-0.028147807
0.35743463
-0.050246932
0.49926829
-0.33959112
-0.43912056
0.78300923
0.15090504
0.24029604
0.0036034219
0.29303804
0.37803757
0.61919224
0.20540729
0.36336005
-0.24559458
0.27557006
-0.4462083
0.095332153
0.38270622
0.1403756
0.01078645
0.28987399
-0.65259206
-0.023364026
0.031776361
0.027910138
0.19733243
-0.50644284
0.29718995
0.0018445306
0.22169791
0.26935822
-0.42046127
0.17996994
0.31058601
-0.71065593
0.083304375
-0.12857047
0.16803336
0.012259117
0.15856338
0.027229562
0.23143457
0.18354836
0.48038197
-0.45588586
-0.36978504
0.77059656
0.053953778
0.22934413
-0.21069169
0.51277834
0.12758289
0.53269863
0.11618392
0.0317798
0.04090818
0.14606515
-0.30890945
0.093850821
0.086275868
0.31526318
0.065998025
0.66708678
-0.73553222
-0.19968006
-0.22816272
-0.3413136
0.090102449
-0.56720036
-0.018289203
0.11074258
0.16720171
-0.2001114
-0.094054021
0.0073200217
0.659931
-0.068137519
-0.035662219
0.28151068
0.30942711
0.051298514
0.17770207
0.1243716
0.3884939
-0.084573753
-0.14321476
-0.3604129
0.00088827993
0.053797211
0.19679259
0.3019667
-0.37832493
0.17780444
0.32652774
0.069072142
0.23517829
-0.21162489
-0.054090608
0.15038805
-0.26135707
0.04018819
-0.16550925
0.30525142
0.078568377
0.21232481
-0.70058912
-0.17495865
0.097615167
0.088593364
0.33642873
-0.11516483
0.37830362
-0.015256501
0.24983476
-0.074154451
-0.062286004
0.22097008
0.18327272
-0.33081043
0.21848612
0.052126437
0.1859857
-0.33320552
0.13602319
0.14435865
0.23751666
-0.13301879
-0.35025051
-0.25294766
0.15565816
0.38033664
0.11212239
-0.22789226
-0.34718868
0.063466609
0.14468241
0.019269796
0.14385727
-0.0063958713
0.087598048
0.11237609
-0.6485368
-0.068539277
-0.42292112
0.1010276
0.10617727
-0.13624558
-0.63726068
-0.24451338
-0.25386998
0.16675445
0.052831262
-0.56583631
-0.33213902
0.19744024
-0.11887579
-0.12824814
-0.33680972
-0.15670991
0.1525332
0.028685575
0.084352672
0.24712358
-0.021659249
-0.11809209
-0.23298837
0.0036972282
0.28169477
-0.70130301
0.063065529
-0.23884857
0.15909573
0.18408635
0.043029569
-0.056045368
-0.2085743
0.066709243
0.27130207
-0.12085044
0.34312814
0.083273977
-0.074319698
0.30247071
-0.35621339
0.35227826
0.010599195
-0.12930943
-0.064646952
-0.69646549
0.32677349
0.54567343
0.93155217
-0.46485916
-0.21054898
0.43578875
-0.23341104
0.40977091
0.80049026
0.41728395
0.22040758
0.076557904
0.25846389
-0.12931933
0.14717199
0.027504051
-0.069047287
-0.084325232
0.41864181
0.46766105
-0.071431421
0.68811923
0.52459919
0.32505071
-0.60096014
-0.24374163
-0.1110991
-0.13875769
0.3853932
0.92870504
0.0687517
0.38945606
-0.091698855
-0.073652394
-0.26153958
0.097057089
0.19811584
0.13763565
-0.0054007131
0.78750724
0.18065037
-0.21132112
0.56368041
0.51627588
0.66157264
-0.56096029
-0.49795803
0.179372
-0.56314284
0.20918557
0.48522386
0.10855978
0.029142337
0.021572709
0.4078688
-0.44457966
0.074812099
0.31010574
0.33177823
0.27872536
0.42203793
0.092275962
-0.37238649
0.2966401
-0.12626275
0.4004077
-0.37298763
-0.29511157
-0.014384709
-0.50476396
-0.054733053
0.34472582
0.19921838
-0.080656372
0.01763585
-0.24647743
-0.13951561
-0.11033411
-0.17945428
-0.037629429
-0.18028249
0.1380292
0.11751521
-0.31090769
0.7987259
0.35994732
0.15677056
-0.85782015
-0.2684693
0.21043181
-0.21066499
0.27062076
0.32130355
0.1092362
0.12828468
0.12119604
0.36670011
0.019949226
0.025509678
0.040176384
0.14290008
0.40233722
-0.36653492
0.13772082
-0.25717431
0.56802058
0.47551018
0.51177633
-0.52353168
-0.70203626
-0.044949986
0.25850496
0.67172152
0.55811995
0.065116681
-0.18627639
0.12148044
0.25312874
-0.082677945
-0.19258474
-0.23231693
-0.11107489
0.15762377
-0.14640334
0.078545786
-0.20478383
0.69041687
0.3296783
0.2730169
-0.37627834
-0.52054685
-0.16387609
-0.092014879
0.62116331
0.25371838
-0.019080322
-0.23325832
8.3963809e-05
0.49883711
-0.042503316
-0.13387254
-0.13483611
0.20039533
-0.22307411
-0.28787178
0.097681038
-0.57199043
1.1371146
0.45158437
0.13662446
-0.41458926
-0.32201216
-0.11033872
0.052521735
0.79120535
0.33961499
-0.25173038
-0.089666627
0.16694543
0.67490375
0.1462279
-0.29587907
-0.050865605
-0.062302727
-0.028715219
-0.036119513
0.083186083
-0.57927221
1.0379387
0.18400212
0.036764696
-0.24974452
-0.5480305
-0.077749014
0.10657288
0.30395335
0.25493047
-0.43043241
-0.23785105
0.116529
0.21243563
0.28989872
-0.26084268
0.0051343245
-0.028035089
-0.27674574
-0.17464079
-0.058013044
-1.01555
0.73623598
0.44410691
0.41947114
-0.27779147
-0.51028609
0.065378681
0.22441144
0.17180042
0.14297825
-0.70569527
-0.091053322
-0.23799329
0.49856621
0.49953985
-0.18208998
0.26014557
-0.25962412
-0.41523948
-0.4567802
-0.013954499
-0.93965673
0.1363925
0.0011412819
0.32375589
0.16715309
-0.56488615
-0.21791703
-0.17090574
-0.21407686
-0.033261664
-0.62498319
-0.50370824
-0.6001178
0.36692199
0.26923162
-0.3498565
-0.084390447
0.087321095
-0.25911108
-0.68068999
0.057360049
-0.73097664
0.29965612
0.21097215
0.38005382
-0.039202869
-0.44195578
-0.18436527
0.070642039
-0.094706379
0.24079345
-0.50575209
-0.16523898
-0.47024694
0.12540774
0.18798855
-0.14059639
0.0014661127
-0.18184048
0.0044833855
0.14160803
0.030197581
-0.57861912
0.32276022
0.019614546
0.22176479
-0.14476484
-0.44272801
-0.10310055
-0.096100107
-0.25495759
0.64406627
-0.40547514
-0.085895725
-0.30019492
0.078802586
0.19295725
-0.057825301
0.27638105
-0.23085627
-0.17610779
0.090178348
-0.1032411
-0.23332348
0.16127427
-0.000427049
0.17250782
-0.0089838868
-0.30445221
-0.14557795
-0.50368863
-0.11734803
0.55712378
-0.24796616
0.073752031
-0.11948118
0.17676871
0.020395136
-0.12721793
0.037331901
-0.044331983
-0.30014259
-0.13612139
-0.22810872
-0.18060859
0.10447275
-0.0081685483
-0.30111319
0.23414636
-0.44393685
-0.32528087
0.021225786
-0.096332297
0.51171577
-0.23674026
0.12697808
-0.31735194
0.083320267
-0.047772311
-0.041411165
0.24355072
-0.068505436
-0.2408171
0.14840524
-0.30487794
-0.37355444
0.22553751
0.043019623
-0.082669728
-0.081517532
-0.37978101
-0.089096494
0.093344234
-0.19240277
0.57948112
-0.34459785
0.44870973
-0.24608792
0.11237539
-0.19610898
0.19581868
0.32745135
0.034472696
-0.084006883
0.17467082
-0.30457273
-0.44056809
0.238087
0.052483272
-0.33228603
0.014743936
-0.5941453
-0.37685502
0.3270365
-0.18075837
0.72251213
-0.60802859
0.24023762
-0.39802706
0.10816294
-0.044695944
0.022148071
0.45590761
0.47271684
0.18694912
0.27938616
-0.21865135
-0.70432991
0.5243175
0.20186457
-0.24405806
-0.16186275
-0.27602732
-0.35212347
0.016085505
-0.038589131
0.73927552
-0.63617158
0.24263079
-0.43030795
0.2805928
-0.16724247
0.1785343
0.5606578
0.32689518
0.12322383
0.3663303
-0.11695465
-0.39600864
0.35959384
-0.063252665
-0.075271629
-0.0057020099
-0.62011695
-0.22502698
-0.0047793281
-0.27335542
0.6526503
-0.62557942
-0.21449465
-0.14633784
0.2082895
-0.01259696
0.064736076
-0.068449713
0.041113745
-0.16098246
0.1339839
0.065191932
-0.14867778
0.25868401
-0.22732702
-0.019515051
0.53545767
0.15497644
0.076327682
0.22653042
-0.038552679
0.19918594
-0.15559348
-0.046922147
-0.26484054
0.5333569
-0.010284084
-0.080305785
0.20745222
-0.30283761
-0.10885796
-0.10644134
0.96947896
0.01144284
0.095979005
-0.034044717
0.079085849
0.30120429
0.2107061
0.23481548
0.088524096
-0.15249665
0.21624136
-0.1393833
0.23577322
-0.25867072
0.40974775
-0.043228526
0.16365689
0.0054237936
-0.26965025
-0.0093393922
-0.17729598
0.57067364
-0.23516111
0.39796975
0.31477728
0.30980748
0.36105123
0.056394607
0.017219961
0.045195632
0.0552186
0.056328546
-0.27721021
0.18761036
-0.39118043
0.6632216
0.2500236
0.13010612
0.11004587
-0.3238875
-0.24597335
0.013300532
0.40466297
-0.058184814
0.46867806
0.36074662
0.64599615
0.35910723
0.015286114
0.18410482
0.054325823
0.11127549
0.092466362
-0.36310264
0.32629961
-0.35339418
0.48315886
0.47096136
0.047678888
0.077859774
-0.18121497
-0.1471516
0.15954882
0.29183418
-0.33736843
0.80826229
0.30439708
0.45796126
0.097494192
0.23255259
0.19935066
0.070959359
0.16161799
-0.18534005
-0.31330487
0.52787542
-0.23813055
0.12375759
0.50468254
0.10603146
0.25063667
0.066047296
-0.17586507
0.036842745
0.23438065
-0.33571944
0.54694545
0.19748962
0.39014778
-0.032902945
0.23899841
0.097972058
-0.15920486
0.16702007
-0.075745471
-0.050732069
0.46665055
-0.17969368
-0.067501254
0.36562768
0.072471626
0.090384603
0.10008664
-0.26687363
-0.2687147
0.12079492
-0.18490978
0.4887003
0.18636252
0.52705616
-0.38231978
0.11628865
0.37936121
-0.24483806
0.13623674
-0.18890983
0.010426075
0.39440155
-0.16759905
-0.14484526
0.28969663
-0.12794723
-0.053882357
0.2251592
0.0552519
-0.18301168
0.095212907
-0.23615351
0.44820988
0.36594349
0.5390808
-0.50288916
-0.0084734466
0.10696098
-0.34602556
0.16034503
-0.25041592
0.0614108
0.30864009
-0.022881323
-0.059483424
0.38914365
-0.025022687
-0.056673259
0.33582273
-0.028201874
-0.3045744
0.045086756
-0.10657439
0.40033564
0.41693449
0.52016896
-0.47836071
0.063102067
0.52426904
-0.37450626
0.1014528
-0.16056834
0.10355661
0.37650681
0.023755152
-0.059384953
0.2010683
-0.21405937
-0.068459697
0.25876305
0.078907333
-0.44662431
0.0062261191
-0.15716912
0.59068352
0.66182911
0.35443807
-0.3955608
0.0076510599
0.53221881
-0.33953458
0.11000793
-0.2762056
0.12479227
0.52516985
-0.0094380472
-0.14902698
0.33592626
-0.10893399
-0.30712298
0.33944023
0.137068
-0.32519665
0.018668899
-0.35569006
0.73037338
0.3680602
0.25114235
-0.47651637
-0.19135828
0.32211289
-0.1594916
0.48866051
-0.15527855
0.052891016
0.57551461
-0.024777722
0.0068563791
0.21505333
0.23432694
-0.26749298
0.31776094
-0.16598321
-0.20531127
0.10578173
-0.30227283
0.73511589
0.43895555
0.23292474
-0.38760534
0.019626491
0.29630765
0.0039275708
0.35556626
-0.22600891
0.080297537
0.41689956
0.015729165
-0.042809814
0.53278273
-0.012561754
-0.048227087
0.49906406
-0.0086426269
-0.042698525
0.18448114
-0.12509389
0.76964891
0.61840594
0.40014815
-0.16348727
0.13145225
0.5370177
-0.018604338
0.53614575
-0.33973062
0.13332318
0.56732529
0.12815151
0.15651569
0.40992928
-0.1773503
-0.095709242
0.46964869
-0.27289727
-0.086002819
0.32430795
-0.27706391
0.95110732
0.5537793
0.16594858
0.21785153
0.29131076
0.33332264
-0.044655349
0.30751902
-0.43376052
0.20748162
0.34342247
0.062751584
-0.042371254
0.61266369
-0.17468776
0.021056043
0.32092905
-0.26841739
-0.2645292
0.38411304
-0.14122854
0.70770001
0.46041882
0.25826746
0.55012476
0.53637284
0.35944131
-0.046834752
-0.10063229
-0.46205646
-0.11999173
0.37397349
-0.0096973469
-0.2011307
0.34208402
-0.55205411
-0.044385493
-0.019801628
-0.19805114
-0.34397131
0.46070522
0.2972796
0.58482665
0.1199699
0.21422406
0.44078726
0.21454558
0.28054896
0.055741992
-0.07995189
-0.32019058
0.0098534636
0.20110133
-0.21110964
-0.018628731
0.22775434
-0.3554768
0.0015301924
-0.17514569
-0.24524499
-0.3092719
0.43445373
0.090425879
0.4115763
-0.040674102
0.036882341
0.57268322
0.0064514428
0.083462894
0.23223245
-0.0051383572
-0.049749862
-0.12985784
0.18372931
-0.084911779
0.090242848
0.26882237
-0.22850618
0.13597885
-0.221412
-0.36829641
-0.2630153
0.40637806
0.099204101
0.44541812
0.15976067
-0.029296085
0.469134
0.014838463
0.15988167
0.36803153
0.06924367
0.043306593
-0.037574161
-0.10014347
-0.2856687
0.46948916
0.23534535
-0.28905946
0.19159234
-0.18046828
-0.49227071
-0.064707123
0.38388011
0.28636718
0.6450721
0.14025222
-0.20350601
0.55759156
0.064606883
0.17613807
0.31723389
-0.17483464
0.074942842
-0.069949158
-0.17773885
-0.18319555
0.39596143
0.25237435
-0.41477934
0.0054185283
-0.25023362
-0.42332652
0.020839712
0.53871149
-0.21377903
-0.7321642
-0.11815701
-0.30315351
-0.16955698
0.2609573
0.33042634
0.096345283
-1.1280116
0.0099708335
0.3562085
0.47640637
-0.84887439
0.3716352
-0.55242217
0.3454757
-0.12902862
0.38549796
0.46610793
0.5167492
-1.3778573
-0.2844339
-0.86594182
-0.12986048
-0.29643041
0.0051091928
0.26577219
0.25682721
-0.030033242
-1.002705
-0.072609507
0.58069855
0.58148348
-0.6830256
0.13508296
-0.245791
0.60969365
-0.12461531
0.38202175
0.39884233
0.52856982
-0.83906996
-0.23384978
-0.9485991
-0.087659523
-0.47764087
0.091661461
0.18188456
0.25735503
-0.15767376
-0.7086966
-0.021959709
0.43235081
0.46897724
-0.54825521
0.43533254
-0.23447031
0.42059535
-0.039803591
0.55902028
0.50072044
0.51202267
-0.23011209
-0.26939118
-0.93702656
-0.052195866
-0.2093655
0.066310741
0.23450302
0.26099682
-0.30329481
-0.7496019
-0.15474027
0.66899109
0.58890843
-0.68843466
0.4662894
0.33714768
0.3603605
-0.081013069
0.31456286
0.52321243
0.62015325
-0.12341931
-0.27077994
-0.74686712
-0.16539733
-0.47493184
-0.22590378
0.40479589
0.16102573
-0.1279214
-0.3902137
-0.18669267
0.56050587
0.45987201
-0.53458321
0.28367457
0.57692516
0.11318901
0.31542119
0.31002811
0.66897768
0.47204307
0.003381385
-0.39089993
-0.35001299
0.13420269
-0.37485316
-0.12167705
0.33503965
0.23324351
-0.079853974
-0.69685704
-0.3152633
0.58875042
0.58909988
-0.66636842
0.36790085
0.37821057
0.1021812
0.34498751
0.49151388
0.66768122
0.57953334
-0.093305148
-0.58174711
0.073520549
0.091767527
-0.39782158
-0.15360717
0.32513535
-0.0057232799
0.072874337
-0.70459616
-0.44384804
0.47480774
0.8597728
-0.47268358
0.22497287
0.41461205
0.02734312
0.43152794
0.20526907
0.62145299
0.56666332
-0.28417644
-0.29892409
-0.0035998586
0.21050668
-0.65775037
-0.37070772
0.41735628
-0.37031549
0.072582453
-0.71228105
-0.5201996
0.39982167
0.88560617
-0.35665095
0.36031193
0.177939
0.15628026
0.39824566
0.35268128
0.27307656
0.48242977
-0.17079026
-0.59558254
0.032696821
0.16110885
-0.63661098
-0.18077855
0.13885207
-0.38129374
0.16613546
-0.76058996
-0.52691329
0.53779107
0.68644059
-0.85243624
0.096269719
0.097079448
0.27844277
0.6699968
0.86214614
0.575755
0.61425871
0.045582011
-0.86346686
-0.12965313
0.27181804
-0.91983962
-0.080064468
-0.019291498
-0.48495567
0.29295766
-0.90108436
-0.56299245
0.34334722
1.0271182
-0.52260447
0.14051458
0.13595863
0.17651728
0.47204059
0.5769347
0.17938487
0.59974951
-0.0086661037
-0.61885011
0.092734627
0.38007227
-0.86189646
-0.19363479
-0.11259023
-0.47393215
0.18637249
-0.96640897
-0.80506319
0.12757383
0.80973697
-0.39819059
0.36188376
-0.24658374
0.25269535
0.64344907
0.564731
0.092193365
0.91031003
0.02152699
-0.68695968
-0.28250971
0.64830124
-0.92490327
-0.14395414
0.017864639
-0.75500292
-0.066449389
-0.80019277
-0.61502391
0.23061997
0.74083996
-0.41975573
0.340624
-0.051808171
0.1728456
0.66110641
0.42936626
0.0054728645
0.71741831
-0.12407732
-0.66890204
-0.035096876
0.51914674
-0.53711236
0.19415635
-0.00072869804
-0.69910735
-0.13819407
-0.77907723
-0.47471976
0.41099796
0.6268627
-0.17765556
0.49386138
-0.17614508
0.16736874
0.43089461
0.44803524
-0.035470299
0.67588174
-0.089184932
-0.51228029
-0.15843078
0.20677237
-0.689785
-0.11289553
0.37186128
-0.58490348
-0.19262086
-0.78362107
-0.30530342
0.55254716
0.44291362
-0.47953415
0.53785425
-0.44098076
0.01286944
0.16597132
0.69780934
-0.14613718
0.588368
-0.13581532
-0.60624206
-0.13609885
0.2154711
-0.79396743
0.19147409
0.030882027
-0.43637902
0.070283286
-0.53321677
-0.25367206
0.41622591
0.44309959
-0.42814171
0.55337179
-0.19979899
-0.023630816
0.16010679
0.5854097
-0.19583154
0.48909703
-0.073915072
-0.90164036
-0.35853827
0.17424758
-0.73519325
-0.19161145
-0.13395232
-0.62075174
0.14269802
-0.52797771
-0.43852922
0.50942057
0.11119818
-0.25310194
0.48555824
-0.12701616
0.0094464719
0.26170856
0.53409946
-0.19641149
0.7028296
-0.3604514
-0.71947986
-0.3673777
0.14944017
-0.73574978
0.01664971
0.045199454
-0.35357699
0.15399763
-0.58167022
-0.6684581
0.64361739
0.065547533
-0.46660751
0.71276355
-0.11486512
-0.24403866
0.16968253
0.55819505
0.059844024
0.71625388
-0.4734571
-0.60717398
-0.6164974
0.25460175
-0.63236409
0.11163853
0.39764357
-0.54856294
0.14286341
-0.71624029
-0.50376809
0.56057388
0.15514848
-0.20698638
0.49433535
-0.46087554
-0.099482872
0.16668884
0.52297664
-0.23597845
0.70002806
-0.69895613
-0.63564205
-0.39895448
0.3069275
-0.64172196
0.0041190363
0.24887809
-0.74742013
0.10208017
-0.67789233
-0.5401417
0.53613263
0.37224728
-0.23458511
0.20622064
-0.44806132
0.17604931
0.14299037
0.60048985
-0.081443436
0.71935904
-1.244055
0.61428642
-0.20966668
0.037601255
0.059971325
0.2811732
-0.069973983
-0.2054361
0.27890891
0.24073742
0.35508549
0.29737669
0.015758263
-0.37896794
0.23826255
0.11039857
0.33802927
-0.15494104
0.12328089
-0.22334959
0.45069718
-0.94680911
0.12656602
-0.34325361
0.25861526
0.22689334
0.41967562
-0.31997415
0.082681894
0.6906389
0.23343047
0.36002365
-0.20015568
-0.038257949
-0.16097522
0.26765746
0.0047684731
-0.13650712
0.30442393
-0.20122746
-0.41019398
0.23221968
-0.73834515
0.32771805
-0.43511188
0.18685575
-0.11128074
0.3284992
0.10209817
-0.26069593
0.22719838
0.16681075
0.25644436
-0.29043898
-0.43357489
-0.044007275
-0.1085574
0.14305806
0.13835435
0.031087536
-0.0010028243
-0.15704809
0.40774557
-0.49206221
-0.034331739
-0.42641598
0.5821861
0.09229476
0.2418991
0.38159153
-0.051828768
-0.16847152
0.22867294
0.25672129
-0.6194486
0.094489068
-0.13316959
0.21583314
0.35482568
0.30520526
0.23753232
-0.046223007
-0.037010998
0.27305216
-0.44677824
0.35531339
-0.30234945
0.04575127
0.29223293
0.053065896
-0.34464946
-0.61465824
-0.15114424
0.17527227
0.026129227
-0.44828939
-0.22606599
-0.31215385
0.035674848
0.31788343
0.096160531
-0.078457326
0.26283389
-0.26243487
0.36603042
-0.56420064
0.16289747
-0.053593937
0.66387379
0.45603651
-0.2300258
0.33714536
0.025299408
-0.098534033
-0.0022269865
0.089071259
-0.5371201
0.080297023
-0.21075985
-0.34986025
0.014110032
0.10499992
-0.10662664
0.25841716
-0.14187677
0.059249565
-0.44519216
0.3688491
-0.097865313
-0.061593197
0.49955246
-0.07353422
0.012910242
-0.55633193
0.0055607161
-0.14623903
0.23723394
-0.35577503
-0.19047064
-0.22807077
-0.22469781
0.16523275
0.16412981
-0.23786883
0.29538268
-0.0022657129
-0.13638483
-0.24962872
0.12282291
-0.64779794
0.33769149
0.44769025
-0.66444522
0.34669554
0.068164796
-0.012463052
-0.25519535
0.2228478
-0.56533903
0.36274713
-0.44793543
-0.0082475683
0.001724244
0.31898206
-0.19292182
0.22807103
0.011781214
-0.25053325
-0.1897656
0.26243562
-0.81596398
-0.035356492
0.32716757
-0.47786021
-0.39322367
-0.47673106
0.21489185
0.12088615
0.27554402
-0.40853086
-0.17048773
-0.35770458
0.20600487
0.14148784
0.10430685
0.1958905
0.20400986
0.26824871
0.13961172
-0.13743076
0.32660222
-0.57997763
-0.043608334
0.12717825
-0.54932487
0.24411504
0.015853649
0.016493637
-0.17309305
0.34485814
-0.13275732
0.54833806
-0.094806761
0.047969203
-0.10276147
0.25307661
-0.073054157
0.097350374
0.38242045
0.13164607
0.0088392505
0.39157131
-0.1980727
-0.1308977
0.51994336
-0.37466654
-0.17845561
-0.02833494
0.30183849
-0.2228218
0.62283766
-0.10356071
0.043508023
0.27491301
0.18652652
-0.40989226
-0.042851932
-0.069238625
0.016806155
-0.081013836
0.077036515
0.057953749
0.0080325166
-0.03842802
0.25137562
0.33130038
-0.89853394
0.054951459
0.24271145
0.2589885
0.32282281
0.4911114
-0.16248699
0.75758505
-0.094458714
0.17416455
-0.4747906
0.0495537
0.11914872
0.079641491
0.089980498
0.010079037
0.1212365
-0.003347184
-0.39077282
0.020009095
0.52112758
-0.834427
-0.29109418
-0.31683341
0.27376285
0.10339083
0.38402528
-0.22195639
0.10633776
-0.096780986
0.5589202
-0.13749799
-0.18667442
0.25513431
0.11022601
0.13422768
-0.13381632
0.19192389
-0.032414518
-0.064947985
0.23548447
0.29272667
-0.84221917
0.0076890574
-0.010640051
0.42876717
0.2082615
0.47957027
0.13052136
1.0571373
0.037665308
0.30778888
-0.051989589
0.19780447
0.032988168
0.051209234
0.044932038
0.1518794
0.086182475
-0.10669755
-0.1602799
-0.053703994
0.35809737
-0.60021937
-0.083349884
-0.43702221
0.3495228
0.069126286
0.48090738
-0.20215514
0.19281077
0.23392256
0.18815458
-0.48985556
-0.29727456
-0.045857951
-0.037277229
0.062367249
-0.0005764048
0.030071497
0.15236421
-0.18327607
0.070954867
0.49113205
-0.75222313
0.15785222
0.020038193
0.2339707
0.11118574
0.45015043
0.016814156
0.60838467
0.56628549
-0.083782494
-0.17569667
-0.14102213
-0.3900139
-0.22345087
-0.055925585
0.37362009
0.0056885034
-0.26248646
-0.28319278
-0.39023569
0.31976527
-0.63799071
-0.33973056
-0.47921667
0.42160922
-0.1425302
0.41338226
0.0022161943
0.16878116
0.24564263
0.20107263
-0.24842094
-0.36475697
-0.24610183
-0.37748584
-0.12866344
0.017696021
0.0077580446
-0.14105551
-0.1384673
-0.065791309
0.33291805
-0.65103954
-0.24662448
-0.42170173
0.17189358
-0.19509575
0.43397132
-0.28724855
0.39597487
0.11810285
0.27172217
-0.35077122
-0.14938544
-0.18547834
-0.48322064
-0.10673632
0.31713784
0.11018161
0.064206101
-0.4879359
-0.017232694
0.065979213
-0.66720027
-0.24938422
-0.44367722
0.38870862
-0.043366976
0.35534847
-0.28680092
0.36440569
0.20972258
0.06529507
-0.52990347
-0.085189156
0.16104314
-0.27263007
0.1913743
0.25000808
0.2014706
0.34331748
0.069390282
-0.49455568
-0.34898338
0.1742225
0.24431048
0.59403294
0.015967714
-0.0048390371
-0.024485735
0.51590681
-0.07707683
0.20365666
-0.022064336
-0.067330778
0.2153905
-0.6203171
0.34361425
-0.031683695
-0.34548885
1.2900122
0.25699067
-0.42883062
-0.37309641
-0.6370936
0.30584213
0.13361773
0.10541931
-0.13217385
0.18537883
0.18071102
-0.35174036
0.12699264
-0.039518263
0.16722322
-0.0010797492
-0.45739377
-0.036216896
-0.14999406
-0.0023024653
-0.5118553
0.93487418
0.5403074
0.24987869
-0.35757983
-0.34686628
0.15546122
0.25638172
0.3521688
0.15989685
0.11648291
0.21276654
0.29452321
0.40698925
0.2050298
0.28580022
-0.15546992
-0.1295616
-0.5821659
0.023067659
0.067681119
-0.14777584
0.72476339
0.65798205
-0.41062123
-0.61242777
-0.52646399
0.35239679
0.10676786
0.23298483
0.062510096
0.026961369
0.24203247
-0.036237888
0.59101981
0.13244738
0.32332319
0.13685697
-0.094117135
-0.074043721
-0.060196467
-0.33557135
-0.13703504
0.55731493
0.42632756
-0.22867325
-0.75471032
-0.28869295
-0.19092543
0.45562467
0.1085342
0.5763768
-0.24604473
0.065167025
0.80434066
0.23842481
0.17340726
0.079230793
-0.06530007
0.26185316
-0.42348015
0.053007178
0.20008253
-0.0051017008
0.48763952
0.34650666
-0.53258413
-0.48063317
-0.62036008
0.14417966
0.50109768
0.43719986
-0.016027194
0.19219361
0.22147977
0.01455409
0.37155733
0.14172453
0.20713727
0.29913822
-0.18885352
-0.17604905
-0.2728532
-0.37002388
0.24025044
0.35183576
0.45641795
-0.37440333
-0.76296252
-0.63843834
-0.052108206
0.55929905
-0.16852209
0.26529896
0.34341636
0.25300416
0.077386141
0.044199433
0.039193079
0.027279453
0.23188923
-0.02635207
0.016920995
-0.16640712
-0.12228046
0.15365651
0.25140956
0.1604708
-0.62740743
-0.4633677
-0.76297611
0.05006564
0.5923844
0.075893752
-0.25289693
0.26722404
-0.061379813
0.18557669
0.50487632
0.33704773
0.38003018
0.28633142
-0.01558061
0.082726367
-0.21242739
-0.51606083
0.049223293
0.18507706
0.37243295
-0.28973758
-0.72426575
-0.47514129
0.42453629
0.25302684
-0.12803844
0.45173106
0.15925202
-0.033871293
0.4168818
-0.29746187
0.32611513
-0.22506845
-0.27558208
0.18509817
-0.14220072
0.1049797
-0.2277474
0.080082648
0.086371399
-0.11726083
-0.26726115
-0.71396697
-0.83660424
0.13277712
0.80927718
0.13396682
-0.12847388
0.12074819
0.016851595
0.17401227
0.47172856
0.40885738
0.0020113722
0.2705726
0.33455572
0.22089164
-0.17831008
-0.28929996
0.078178532
0.0071371272
0.68069547
-0.43353131
-0.46174401
-1.0029553
0.41598693
0.71003813
-0.13786624
-0.093473561
0.44475299
0.024053458
0.3430233
-0.14243117
0.44692823
-0.2953237
-0.065172985
0.25044197
-0.10783219
0.085525304
-0.5005101
0.16477801
0.20297621
0.14419895
-0.45898449
-0.13000928
-0.70746225
-0.13145928
1.0868728
0.03600163
-0.019416472
0.086005814
0.31733444
-0.25865573
0.31507954
0.13565673
-0.015062082
0.36250266
0.1015237
0.37193596
0.079379864
-0.306465
0.38403186
0.28087729
0.1507951
-0.37279621
-0.39348003
-0.6498729
0.4085716
0.89556038
-0.50106102
0.025418021
0.34331593
0.33508042
0.075591788
-0.23011555
0.15813056
0.4061954
0.03321844
0.43358269
0.0062076263
0.27005169
-0.36609766
-0.038638741
0.32879817
0.25357431
-0.24219666
-0.069220744
-0.56668174
-0.11386306
1.1417252
0.097720973
-0.17573766
0.081552513
0.2837624
-0.23092914
0.34212592
0.31325135
0.068985134
0.089069441
0.14399552
0.21612102
-0.16067407
-0.22058859
0.34672764
0.36116064
0.1489944
-0.52950013
-0.61543822
-0.33924714
1.0717998
0.56606013
-0.41245204
-0.39803323
0.12884402
0.24052054
-0.24289851
-0.60054612
-0.090410694
0.055010907
0.33134574
0.069112271
0.12809329
0.26653847
-0.25721911
0.033179589
0.28004763
0.22586964
-0.36467046
0.10389072
-0.57816762
0.27270731
0.92454666
-0.074693702
-0.33378008
0.16341777
0.019684074
-0.028734958
0.50572497
0.076004311
0.18000542
0.26939961
0.38657686
0.31589961
-0.0037976357
0.070014149
-0.29272297
0.31408733
0.21727365
-0.66513664
-0.43806788
-0.37934276
1.2379869
0.3350102
-0.23036025
-0.2604247
0.2619909
0.076736048
-0.04903695
-0.53086692
-0.06138147
0.34619036
0.20754097
-0.20508271
0.062017042
-0.0528014
-0.7525515
-0.028871691
0.16413665
0.081438407
-0.11326308
0.20641446
-0.32299873
0.72737873
1.2686814
0.059142701
-0.35042983
0.056810327
-0.018852208
0.0083028069
0.34223062
0.29303479
0.18253012
0.43352193
0.66355819
0.25623342
0.17345883
-0.1075821
-0.2507537
0.31613135
0.38357496
-0.79479235
-0.34160027
-0.3661685
0.88653237
0.55651999
-0.19256057
-0.32474026
0.20688991
-0.10942188
0.17501815
-0.23684651
0.31346494
0.24657549
0.035888478
0.28720316
0.16877554
0.13984938
-0.43624172
-0.45024899
0.45274079
0.17180768
0.17350784
0.11446884
-0.63788658
-0.036080658
-0.12990719
-0.19712344
0.12581076
-0.50099671
-0.030981531
-0.16373627
0.19409268
0.22467692
0.0059836856
0.40684894
0.014757558
0.060979981
0.46575415
0.24395449
-0.53119153
1.0849259
0.13163792
0.057168592
-0.14092676
-0.37132099
-0.08820425
-0.079281539
-0.39545989
0.23455893
-0.30365074
-0.11264712
0.090386935
0.2742784
0.18771185
0.10295549
0.30403247
-0.058003675
0.058703344
0.51420468
0.28372318
-0.38422641
0.49776042
-0.0057461103
0.11712555
-0.065086409
-0.41205212
-0.2789222
-0.14489612
0.047039676
0.22881582
-0.28998643
-0.28555253
0.070006408
0.44282225
0.16083577
0.0020293193
0.13536671
0.052821316
-0.11755705
0.42134666
-0.06440711
-0.50890487
0.15146098
-0.04683413
0.34493455
-0.17432511
-0.21289387
-0.36522123
-0.26295471
-0.14127848
0.061081976
-0.15914412
-0.3562215
-0.013578525
0.20647214
0.18161646
0.18252988
0.25185615
-0.032223031
-0.20008722
0.25022644
0.1079555
-0.56823188
0.07880751
0.083172858
0.23370944
-0.092688434
-0.44432634
-0.22084996
-0.23925534
0.050155662
-0.029876556
-0.29765543
-0.13007987
-0.056881353
0.28118572
-0.035624366
0.21361503
0.045408327
0.081341274
-0.20535196
0.24524766
-0.031122509
-0.46935442
0.13149203
0.12564111
0.35145682
-0.25362307
-0.33143511
-0.16625524
-0.34651187
-0.099986948
-0.041216299
-0.068131
0.0060611921
-0.093221717
0.31994411
-0.070282273
0.21011947
0.19106303
-0.088221408
-0.24496822
0.18826497
-0.051028159
-0.60511601
0.14165349
-0.099053167
0.44786039
-0.22933401
-0.44174808
-0.33671585
-0.20264578
-0.084023081
-0.13859774
-0.18312179
0.048200894
0.020314192
0.26902497
-0.057829577
0.01442268
0.49808273
0.086686291
-0.071561918
-0.068649553
-0.01931498
-0.46708146
0.22762653
-0.043834358
0.3975729
-0.21293911
-0.50047338
-0.55990648
0.039431419
-0.44588679
0.22158745
-0.22567935
-0.22822204
-0.05821044
0.40125212
-0.15085851
-0.048537359
0.60367233
-0.1209744
-0.14160909
0.24668878
-0.147025
-0.37469307
0.21428415
-0.11733821
0.68984663
0.18412808
-0.65536308
-0.51352316
-0.03768409
-0.45427006
0.064952545
-0.099114127
-0.1180264
-0.085403115
0.29762581
-0.16320486
-0.051542569
0.5357033
0.19719154
0.13620034
-0.084686868
-0.14576851
-0.03901501
0.10488668
-0.43968409
0.65876222
0.22643279
-0.50981158
-0.48240608
0.075671218
-0.24186522
0.13601072
-0.068547644
-0.37046579
-0.2275947
0.44720301
-0.081838369
0.032782
0.32347745
0.06002266
0.055035651
-0.12145814
-0.1328128
-0.29568768
0.013008226
-0.092699654
0.35551882
0.23482038
-0.49070561
-0.34878442
0.1013215
-0.1785049
0.051296007
-0.088703446
-0.21444206
-0.076847762
0.56109011
-0.22097756
-0.090662174
0.59606427
0.26266542
0.24291164
-0.40441716
0.32797739
-0.15083846
-0.011585379
-0.17922038
0.23824462
0.015710676
-0.80394548
-0.12355699
0.086792998
-0.16890593
0.066059783
-0.11060236
-0.17886671
-0.041729104
0.45031416
-0.16911401
0.22965583
0.3700102
0.20729062
0.4522987
-0.23999156
0.030251371
-0.38360023
-0.021197326
0.10564122
0.31540349
-0.12287808
-0.41644832
-0.35001132
-0.24847175
-0.2640323
0.053882256
-0.16385537
-0.37884974
-0.21548332
0.39532566
0.13807951
0.28055188
0.19355355
0.35186166
0.29952046
0.10859169
0.17656665
-0.26703101
-0.028949969
0.29531074
0.23781419
0.054815948
-0.4044807
-0.54114032
-0.20061205
-0.088458762
0.13831301
-0.33953068
-0.2486608
-0.07430695
0.3112773
-0.0029199566
0.42456853
0.14892529
0.050346226
0.12026818
0.054284398
0.26111609
-0.18747675
-0.10773048
0.20979957
0.24397133
0.15910223
-0.19397175
-0.42164564
-0.39778352
-0.091248199
0.081913441
-0.066270441
-0.34535113
-0.11552463
0.18317141
0.089466639
0.33802465
-0.0083008762
-0.052650072
0.19700494
0.19919258
0.29867664
-0.11988487
-0.13928643
0.31852338
0.048826773
0.12466294
-0.23729725
-0.42530829
-0.35765874
-0.026218785
-0.045602914
-0.10579901
-0.33033383
-0.1104647
-0.057071023
-0.029622657
0.35671008
-0.086868778
-0.29954785
0.14434083
0.18218577
0.28348064
-0.022590064
-0.21715149
0.31065977
0.20583493
0.0014470719
-0.41013986
-0.10013694
-0.27088505
-0.047972541
0.0091098286
-0.1635057
-0.34114158
0.22467281
0.061788339
0.17197742
0.11081751
-0.0044381376
-0.083225898
0.034453485
0.18261644
0.26685053
-0.10672891
-0.28132099
0.31293902
-0.18532085
-0.013225646
-0.36683568
-0.17612837
0.13602798
0.035594162
-0.032680437
-0.13466831
-0.35529464
0.12011109
-0.052514493
0.12191055
0.27895007
-0.28192332
0.070249416
-0.099561848
0.38851976
0.19588012
-0.16084053
-0.13455479
0.22891314
0.16926469
0.034728173
-0.62896234
0.0037009625
0.23603953
0.023223385
-0.016680324
-0.07988511
-0.028359251
0.317586
-0.10493349
0.080691427
0.089766309
-0.51205552
0.12512027
0.037253007
0.32495141
0.29116264
-0.21417576
-0.0053036148
-0.018323021
-0.07451684
-0.1974064
-0.22736157
0.36820638
-0.15247399
-0.29203251
0.11395074
-0.085773557
0.15642782
-0.28191492
-0.087468177
-0.069365889
0.39315751
0.12125412
-0.60750532
-0.15041503
0.33883464
-0.31180096
-0.50435108
0.48313388
0.41757995
0.41268402
-0.16100879
0.22194959
0.18606994
0.060356941
-0.062535435
0.34718972
0.066683508
-0.048628718
0.37347892
-0.4922215
0.14322226
0.21890801
0.00063580734
0.13003063
-0.78916878
0.40254685
-0.080357112
-0.26975444
0.3516219
-0.093645968
-0.18091312
0.064285398
-0.18620986
0.14679314
-0.30788186
-0.32654113
0.45567194
0.073748693
0.41855571
-0.66102135
-0.020766387
-0.24319781
0.41443256
0.60682422
-0.5012489
-0.048816174
0.31470862
0.17249638
-0.61254078
0.20757341
0.48461577
-0.12836225
0.1656934
0.18362238
0.21315961
-0.073231816
-0.18137252
0.37387985
0.36799335
0.36129105
0.16596909
-0.40188357
-0.33232072
0.53692484
0.13699758
0.18549959
-0.40023685
0.65985155
0.50326866
-0.042658217
0.11891065
-0.036604807
-0.14037645
-0.21482953
0.22561917
0.044196974
0.1862296
-0.020403711
0.17996927
-0.019923657
0.33526078
-0.27994743
-0.06180739
0.19699548
0.075381361
0.55952084
-0.47685719
0.052287571
-0.017956777
-0.31896085
-0.17909446
0.10489605
0.50322127
0.096031919
-0.16935456
-0.32517278
0.078810565
0.52693093
0.13882534
0.20271978
0.33341172
-0.069388583
0.12812898
-0.1703012
0.24540301
0.23752607
0.12852035
0.199258
0.10973063
0.53596061
0.011951839
-0.12452488
0.055685714
0.14522901
-0.13531592
0.27830219
0.22722967
-0.00080641283
0.31434846
0.20371208
-0.4016915
0.020714998
0.18932153
-0.27213129
0.21845333
0.011843055
0.041686643
0.4241493
-0.035774563
0.16357455
0.089872405
0.080966569
-0.062233672
0.034392253
0.1847422
0.078502759
-0.28763142
0.42394358
-0.078742705
-0.22867973
-0.16290089
0.31234676
0.050426699
0.050403502
0.039478369
-0.60265428
-0.076342568
0.36859536
-0.15080771
0.24809474
0.070769548
0.41696036
0.28453922
-0.020103803
-0.075948246
-0.18329228
-0.079752624
0.23274213
0.14678471
-0.26200017
0.53794724
0.38775662
0.23840199
-0.13764223
0.18532081
0.038338263
0.42153156
0.13048592
0.00068336516
0.15097018
-0.16472925
0.11148644
0.25786653
0.18263577
-0.16292019
-0.077559195
0.33719972
-0.1281399
-0.69802392
0.46408609
0.58663809
-0.047829464
-0.084422186
0.5082553
0.2745088
0.42428985
-0.21891695
-0.71939397
0.13513806
-0.05797562
-0.40828547
0.021588404
-0.27018279
0.53201491
-0.22965431
0.10275183
-0.0047121444
-0.064859062
0.15441751
0.21058527
0.24543452
-0.094810925
0.41270527
0.15444528
-0.1369137
-0.065632977
0.36938697
-0.33555096
0.32205433
-0.049297851
0.18032883
-0.077082053
0.31218845
0.1067611
0.27082124
0.13886002
0.13122317
-0.055198722
0.41100594
0.29176477
-0.26664913
0.02892926
0.25612083
-0.36167186
-0.89884323
-0.073388882
0.14056659
0.089145742
-0.069011763
-0.34577882
-0.081870869
0.31896669
-0.22277088
-0.11117763
-0.034823027
0.36424088
-0.33951682
-0.29793605
0.077639125
0.08546517
-0.16399761
0.27052006
0.15097293
-0.29019058
-0.011492463
0.4613519
0.29694861
-0.11572892
0.21521851
0.10250535
0.32405773
0.069807611
0.10267617
-0.40683797
0.22978231
-0.26623732
0.24289209
0.17267558
0.17008819
-0.012608112
-0.038665172
-0.25756282
-0.50178832
0.24404579
0.49542022
0.37752068
-0.24574876
0.31477988
0.0032764797
0.28063256
-0.046942648
-0.12000399
-0.08474081
0.53286439
-0.2933484
-0.036051124
0.0042142337
0.57955271
-0.19657673
-0.50362629
-0.058599088
0.066890426
0.12494861
0.35570693
0.37334105
-0.37883413
0.7005378
0.43426779
0.21200825
0.12502491
0.2307746
0.091878921
0.73291218
-0.085221693
0.16469452
0.19292007
0.49826857
0.19114029
0.16804633
0.055265497
-0.093631953
-0.18060806
-0.31497696
-0.16799426
-0.64004099
0.16698074
0.39084211
-0.51790339
-0.55251122
0.2269811
0.28745696
0.1281133
-0.41703531
-0.89554256
-0.57889742
0.37546515
-0.13058227
-0.26302576
0.25873899
0.13635334
-0.41715503
-0.27879211
-0.10303454
0.25439045
0.17392577
-0.07863716
0.038158022
-0.16539693
0.45734984
0.53659827
0.34262708
0.17493251
0.067763776
0.21458896
0.11253683
-0.091548681
0.20019786
-0.10244455
0.13086392
-0.32726648
0.024104953
0.16304468
-0.32568493
-0.1943731
0.64800018
-0.46589741
-0.4251214
0.15444683
0.83810574
0.05559754
-0.010460472
0.64805108
0.20467477
0.32931504
0.00044970374
-0.25692257
0.21019042
0.55253369
-0.80689442
-0.21178523
-0.31405723
0.0090879537
-0.35902041
-0.43272096
-0.045149058
0.23735814
0.015597956
0.017415544
0.36832264
0.23337661
0.34108847
0.48417801
0.4362863
-0.24313146
0.42500088
-0.019413609
0.62488741
-0.33100495
0.05325643
-0.19073091
0.041230392
-0.021511441
0.061440401
-0.3264969
-0.13091107
0.30830675
-0.2239285
0.0079158871
0.28856677
-0.3209523
0.19680005
0.49527523
0.30596322
0.00091241149
0.033564676
-0.66189951
0.1115123
-0.15418811
-0.39518073
0.07151182
-0.032702945
-0.051175956
0.12048712
0.38451272
0.17996939
0.53451592
0.20913215
-0.51857549
0.041609842
0.46101487
0.27017808
0.32838044
0.83490056
0.40944928
0.13716987
0.28488177
-0.5345521
0.040704191
-0.15652306
-0.030072598
-0.18574025
-0.013197087
0.093972161
0.23135032
0.46013474
-0.10740129
0.11112002
0.42060056
-0.048026554
0.09755329
0.4834919
-0.32521924
0.11044011
0.63441402
0.33873606
0.27082136
0.45646802
-0.13528013
-0.00077924778
-0.22469936
-0.061723568
0.067257054
0.14279905
0.0035388586
0.66353524
0.36291498
-0.34948713
0.22291552
0.54350972
0.06885121
-0.34360668
0.18807501
0.13776506
-0.29817882
0.5919441
0.73112154
0.23614721
0.62033457
0.16481981
0.19909297
-0.17188941
-0.1900299
-0.01534555
0.079751775
0.13278762
0.66701561
0.63426077
-0.14953364
-0.004421975
0.56579405
-0.065942325
0.18075363
0.48616201
0.11891131
-0.09186244
0.54262453
0.48099566
0.098123156
0.2195726
-0.11874796
0.20682918
-0.34590021
-0.1850965
-0.12657474
0.49531519
-0.10172319
0.11868516
0.30641067
-0.093727596
-0.016662937
0.75903505
-0.38414943
-0.18927799
0.24480045
0.0012596903
-0.46183151
0.34642452
0.61111784
-0.23795962
0.69762623
-0.1821112
-0.11326387
-0.25987703
-0.13664946
-0.46221167
0.55665255
0.039316304
0.14780761
0.29981926
-0.39351591
-0.18841742
0.52468693
-0.015566749
-0.078333221
0.30801353
-0.097653858
-1.0651054
0.28568816
0.46452051
0.017489884
0.60868973
-0.14726481
-0.10930149
-0.50190896
-0.20095173
-0.21730278
0.40456
0.15780672
0.26105902
0.034424257
-0.44950426
-0.24147914
0.43166122
0.016650042
-0.12584528
0.64447254
0.13915265
-0.74560809
0.17880499
0.66582233
-0.31430539
0.63939691
-0.47553667
0.27721459
-0.20692401
-0.27073595
-0.39501417
0.51899582
0.18020441
0.22020064
-0.099385068
0.11889611
-0.17206557
0.34235778
-0.12283282
-0.39864865
0.5044958
0.8311376
-0.79188162
0.19844665
0.8495689
-0.27183643
0.24105915
-0.30976072
-0.15783454
-0.53987998
-0.11798241
-0.28574803
0.56956249
-0.14977027
0.35740966
0.0044922223
0.09633521
-0.46952954
0.22915892
-0.19550063
-0.58693212
0.45310059
0.4426854
-0.7397843
0.76429218
0.72060275
-0.076941222
0.45321289
-0.32929087
-0.33097705
-0.39266613
-0.029949151
-0.29838002
0.80759948
-0.061744478
0.55402857
-0.41546902
0.13162029
9.3244358e-05
-0.028627736
-0.22820675
-0.59946883
0.67656314
0.16001335
-0.83160609
0.42910129
0.063598156
-0.040462337
0.36325073
-0.12481827
-0.62830538
-0.4002918
0.089709722
-0.30555516
0.65668815
-0.042648979
0.76794535
-0.25609776
0.43730041
-0.27156997
0.17826283
-0.25852266
-0.61282623
0.48335364
0.079965718
-1.0910531
0.60521966
0.34482807
-0.13750754
0.29801428
-0.19508913
-0.28718615
-0.4325251
-0.55346096
-0.30204493
0.90885758
-0.0051950323
0.59825701
-0.47744977
0.51578325
-0.41753653
0.29025838
-0.65000582
-0.56119317
0.40415388
0.45819563
-1.3679703
0.32014781
0.52447498
-0.25778961
0.20038484
-0.046290711
-0.22713937
-0.53514296
-0.679263
-0.38512099
0.53342235
0.19125144
0.89695358
-0.38417342
0.40333471
-0.59567535
0.19625431
-0.82227319
-0.4444955
0.56332201
-0.026710756
-1.3859577
0.55089331
0.43385023
-0.01606564
0.16898032
-0.013469096
-0.19860598
-0.36269113
-0.39118204
-0.19794802
0.58360618
-0.041312333
0.64075291
-0.44779465
0.17868572
-0.39486626
0.15627436
-0.61100727
-0.39984387
0.39766249
-0.015736923
-1.2759774
0.55487984
0.3642894
-0.2105066
0.20060676
-0.056950014
-0.25271982
-0.10934024
-0.42347044
-0.098549038
0.85823774
-0.11956296
0.41748846
-0.36179113
0.49951336
-0.39462766
0.12544107
-0.65955997
-0.48232046
0.47326463
-0.0076033282
-1.028788
0.078995913
0.35877684
-0.08703883
0.35568291
0.024599301
-0.43859789
-0.018927492
-0.47956827
-0.0061498778
0.65614045
-0.21362817
0.11248703
-0.63347745
0.72981882
-0.2838439
-0.050475284
-0.37725016
-0.3700994
0.98590368
-0.045806348
-1.3212999
-0.044245023
0.20825437
0.026802042
0.62172139
0.22452404
-0.33619195
-0.10294172
-0.032276195
-0.19033818
0.65649098
0.051477801
0.041584384
-0.1651994
0.62660724
-0.14464578
-0.066371053
0.010515436
-0.13225706
0.55831748
0.053141281
-0.75419682
0.098651811
-0.14513034
0.36346912
0.49439913
0.041453935
-0.3008678
0.11199722
-0.15311132
-0.039203342
0.62095034
0.045602951
-0.057948545
-0.041854013
0.75836259
0.23076063
-0.0014502743
-0.3131023
-0.55822122
0.4435879
-0.051323581
-0.38655627
0.10646608
-0.006414596
0.31545198
0.32159773
-0.37101018
-0.54822338
0.18112852
-0.17954327
-0.20395876
0.39691153
-0.066127293
0.39578274
-0.081111886
0.71624196
0.061728392
-0.12504171
0.11997747
-0.58473766
-0.36266136
-0.86889529
-0.18268789
0.84009194
-0.28032255
0.092211396
-0.3247602
-0.18353705
0.97872424
-0.43236485
0.23723544
-0.00026482664
0.31936252
-0.22631027
0.18135582
0.45865679
-0.36504859
-0.23760082
-0.82809901
0.50611317
-0.20294961
-0.081408083
-1.0312277
-0.62875116
0.94401217
-0.39845896
0.037227076
0.078844339
-0.18121409
0.075746708
0.13760431
-0.027553516
-0.22147645
-0.03799076
-0.56812769
0.50643754
0.22466367
0.41862071
0.14309944
-0.4567084
0.31458303
-0.74246204
0.051847428
-0.49811843
-0.1513311
0.22753592
0.063926585
0.29868037
-0.46183839
-0.17021868
0.35408938
-0.38742691
0.42304522
-0.1296595
0.04637133
-0.18656984
0.58143431
0.46321493
-0.085483737
0.26437029
-0.1842761
0.089949213
-0.11464532
-0.097378083
-0.62310719
-0.2996293
1.0519747
-0.28024191
-0.077515312
-0.30755815
-0.34471822
0.32903913
0.068311788
0.029882289
-0.17934094
-0.087118715
-0.0013498062
0.43111208
-0.17160156
0.11860905
0.21451053
-0.024808491
0.35390705
-0.27544111
-0.16866365
-0.68913573
-0.042994723
0.57561916
-0.32160476
0.10325396
-0.41731003
-0.30746469
0.01543224
-0.22576036
-0.090079486
0.1655324
0.062248476
0.06310524
0.24732184
0.27718681
0.088353395
0.13479654
0.089323297
0.63855296
-0.72863317
-0.044994876
-0.59965998
0.18402502
1.0528889
-0.21184605
0.23459169
-0.21619509
-0.59611452
0.053154826
-0.35831892
-0.043991141
-0.17901832
-0.095836416
0.014373249
-0.16510302
0.024763184
0.22034962
0.25659516
0.097478479
0.71320754
-1.0564539
-0.033869535
-0.70958591
0.67388886
0.42870507
-0.57927346
-0.068574578
-0.037146203
-0.5344823
0.063516416
-0.31543827
0.0029201128
0.14701635
0.49129686
0.1606233
-0.049420554
0.40840223
-0.041335113
-0.26084793
0.12310413
0.22053787
-0.85193068
-0.181058
-0.18428321
-0.02435091
0.9985655
-0.28192282
0.076193348
-0.14307673
-0.37273777
0.026843604
-0.38238981
-0.054525141
-0.066826373
0.39750472
0.10228613
-0.15823187
0.19323684
0.092008717
-0.068159431
0.16154166
0.41872141
-0.64572406
-0.037276022
-0.23457913
0.10063767
0.67580307
-0.37125632
0.33731699
0.0045649093
-0.35779241
0.23879397
-0.099158548
0.27966419
0.038113233
0.57788402
0.032355465
-0.1159573
-0.42249107
-0.27438405
0.24173117
0.081625782
0.6424703
-0.56421924
-0.18278667
0.1720468
-0.2098235
1.2206625
0.18795179
-0.0014521335
-0.13622493
-0.41039857
0.33391312
0.012585714
-0.028564563
-0.16617472
0.15313685
0.30260268
-0.61328316
0.10666092
0.11471321
0.37867665
0.024432799
0.37788671
-0.93520176
-0.54665142
0.0008587768
0.32606027
0.59336245
-0.030082395
-0.61509943
-0.393639
-0.42162684
0.32409644
-0.72099984
0.13633659
-0.40562758
0.39046428
0.10238899
-0.20994087
-0.061549369
0.011974179
0.036695715
0.21540537
0.44774684
-0.3484948
-0.30592209
-0.057997983
0.055469465
0.86288941
0.039564185
0.11480805
-0.27395311
0.13555005
0.23905781
-0.19029315
0.012310586
-0.37854716
0.23635408
0.055910744
-0.069747835
0.13515744
-0.014055464
0.6075542
0.14359607
0.81368524
-1.2711895
-0.46471366
-0.2136035
-0.23135361
0.56381148
0.13701713
0.066130094
-0.42494926
-0.35971203
0.11447542
-0.47897258
-0.18532109
-0.2108386
0.32635042
0.12658064
-0.11544874
0.10180616
0.14011127
0.29508033
0.077257842
0.88244396
-0.68791831
-0.63066411
0.14544982
-0.070820801
0.63302648
0.21179791
0.19742931
-0.35734668
-0.42242029
0.41573092
0.1335064
-0.056929715
-0.048205364
0.29865158
0.071973436
-0.24830709
-0.01170479
0.14350766
0.41183421
0.0032978631
0.90344125
-0.68978798
-0.56160915
0.0091806632
-0.04035655
0.72518158
0.23955539
-0.19165063
-0.11876828
-0.50095886
0.11078978
-0.16219395
-0.33887327
-0.50667942
0.17069609
0.011247571
0.058106452
-0.04090295
0.19549
0.30382258
-0.043049347
0.91835481
-0.54247946
-0.76085657
-0.062686257
0.15490572
0.65252668
0.42710939
-0.45412436
-0.28948939
-0.49680033
0.12126171
-0.35432327
-0.0096007297
-0.39351946
-0.34675151
-0.037738543
0.071105838
0.12020393
-0.023762027
0.65433252
-0.20370212
0.56792557
-0.50106275
-0.40859538
0.055345662
-0.095508955
0.7386179
0.18331474
0.069180578
-0.084610641
-0.48645991
0.2352149
0.057924494
0.024354553
-0.6089496
0.077164248
-0.060082771
0.35335779
-0.18777187
0.15903093
0.5151127
-0.34579739
0.7219162
-0.71183568
-0.69060421
-0.072755814
-0.15602243
0.41539669
0.29443887
-0.14897126
-0.37807336
-0.41436768
0.086417086
-0.10561616
0.47977585
-0.24543138
-0.29875994
0.027740717
0.49267581
0.18705341
0.45457277
0.36659753
-0.55990052
0.83083147
-0.48189336
-0.55392683
0.22329994
-0.50866997
0.74682093
0.11107954
-0.21068117
-0.11972566
-0.12129432
0.32962176
-0.092444777
0.079192221
-0.57081282
-0.012203679
0.11426103
0.15299314
-0.26384729
0.27638328
0.41582248
-0.72574663
-2.100107
1.6805507
2.8813245
-2.3990741
-3.3269048
-2.559237
1.7016137
2.503113
-3.0363057
1.7249452
2.9507194
1.8651811
2.2154241
-2.6570976
-2.3061931
1.9599534
-1.8624237
-2.8849947
2.5525751
3.5419414
2.208214
-1.9142232
3.7957885
2.9948213
-2.141783
-3.3663294
-1.7570524
-2.7721884
2.7634616
2.1075971
-1.3337659
-3.2021577
-0.39821035
-2.3998427
-1.7710403
0.24096268
-0.88453341
-1.6421641
0.34844604
2.7166138
1.1324321
-2.9380987
1.4663342
-1.593098
-0.26540479
-0.99184138
-1.4046773
0.58038431
0.51142514
0.79187018
-0.0028948286
-1.6638136
0.97777462
0.053254295
-3.4939773
-0.27435854
0.35883296
-0.59751469
-1.9107249
0.619519
0.97106344
0.79563427
1.5494554
-0.18121244
-0.65649658
-1.4352363
0.12565282
0.40843797
2.3720453
0.13102472
-0.31250659
0.39144605
-0.39803535
-0.71096635
-0.81206423
-2.0896244
-3.0029275
1.2073925
-1.0667387
